<?xml version="1.0"?>
<opencv_storage>
<my_svm type_id="opencv-ml-svm">
  <svm_type>C_SVC</svm_type>
  <kernel><type>RBF</type>
    <gamma>8.9999999999999997e-02</gamma></kernel>
  <C>10.</C>
  <term_criteria><epsilon>2.</epsilon>
    <iterations>1000</iterations></term_criteria>
  <var_all>325</var_all>
  <var_count>325</var_count>
  <class_count>2</class_count>
  <class_labels type_id="opencv-matrix">
    <rows>1</rows>
    <cols>2</cols>
    <dt>i</dt>
    <data>
      0 1</data></class_labels>
  <sv_total>144</sv_total>
  <support_vectors>
    <_>
      0. 0. 0. 0. 0. 0. 0. 0. 0. 0. 0. 0. 0. 0. 0. 0. 0. 0. 0. 0. 0. 0.
      0. 0. 0. 0. 0. 0. 0. 3.92156877e-02 1.29411772e-01 4.58823532e-01
      4.27450985e-01 3.45098048e-01 2.74509806e-02 8.23529437e-02 0. 0.
      0. 0. 0. 4.74509805e-01 6.94117665e-01 7.76470602e-01
      8.66666675e-01 8.82352948e-01 8.86274517e-01 6.78431392e-01
      3.88235301e-01 2.74509806e-02 0. 0. 0. 2.19607845e-01
      5.56862772e-01 7.41176486e-01 9.13725495e-01 9.41176474e-01
      9.21568632e-01 9.17647064e-01 7.92156875e-01 6.27451003e-01
      2.86274523e-01 0. 0. 0. 4.50980395e-01 6.23529434e-01
      8.31372559e-01 9.64705884e-01 9.56862748e-01 9.45098042e-01
      9.25490201e-01 8.90196085e-01 7.01960802e-01 4.58823532e-01
      4.31372561e-02 0. 1.05882354e-01 4.50980395e-01 7.17647076e-01
      8.82352948e-01 9.84313726e-01 9.68627453e-01 9.60784316e-01
      9.21568632e-01 8.11764717e-01 8.19607854e-01 5.37254930e-01
      2.74509817e-01 2.62745112e-01 0. 5.41176498e-01 7.64705896e-01
      8.15686285e-01 9.25490201e-01 9.01960790e-01 9.05882359e-01
      8.47058833e-01 8.00000012e-01 7.09803939e-01 7.13725507e-01
      2.47058824e-01 2.58823544e-01 1.05882354e-01 5.45098066e-01
      7.17647076e-01 8.66666675e-01 9.49019611e-01 9.49019611e-01
      9.09803927e-01 9.21568632e-01 8.50980401e-01 8.31372559e-01
      6.62745118e-01 3.41176480e-01 6.43137276e-01 0. 4.82352942e-01
      7.84313738e-01 9.52941179e-01 9.88235295e-01 9.92156863e-01
      9.88235295e-01 9.09803927e-01 8.58823538e-01 9.05882359e-01
      6.27451003e-01 2.31372550e-01 4.03921574e-01 2.00000003e-01
      3.05882365e-01 4.39215690e-01 9.29411769e-01 9.45098042e-01
      6.90196097e-01 8.54901969e-01 5.49019635e-01 1.17647059e-01
      2.98039228e-01 4.27450985e-01 1.88235298e-01 2.00000003e-01
      1.37254909e-01 2.23529413e-01 5.13725519e-01 7.52941191e-01
      2.19607845e-01 9.60784316e-01 9.52941179e-01 2.15686277e-01
      3.80392164e-01 5.05882382e-01 3.72549027e-01 2.82352954e-01 0. 0.
      2.74509817e-01 1.96078435e-01 8.58823538e-01 7.84313738e-01
      9.96078432e-01 8.78431380e-01 9.80392158e-01 1. 7.05882385e-02
      4.39215690e-01 4.03921574e-01 0. 0. 6.90196097e-01 4.54901963e-01
      3.37254912e-01 5.72549045e-01 4.78431374e-01 9.09803927e-01
      1.33333340e-01 3.72549027e-01 4.31372553e-01 4.54901963e-01
      3.33333343e-01 0. 0. 6.78431392e-01 5.41176498e-01 7.17647076e-01
      7.92156875e-01 8.23529422e-01 8.50980401e-01 5.72549045e-01
      8.03921580e-01 7.64705896e-01 4.39215690e-01 6.07843161e-01 0. 0.
      5.33333361e-01 9.05882359e-01 8.98039222e-01 9.01960790e-01
      5.68627477e-01 9.41176474e-01 4.23529416e-01 8.39215696e-01
      8.35294127e-01 7.72549033e-01 5.05882382e-01 0. 0. 2.39215687e-01
      7.56862760e-01 9.49019611e-01 9.88235295e-01 4.39215690e-01
      9.92156863e-01 2.19607845e-01 9.37254906e-01 8.74509811e-01
      7.17647076e-01 3.41176480e-01 0. 0. 8.23529437e-02 7.41176486e-01
      7.52941191e-01 9.60784316e-01 3.60784322e-01 9.17647064e-01
      1.49019614e-01 9.49019611e-01 8.50980401e-01 6.94117665e-01
      1.05882354e-01 0. 0. 0. 7.41176486e-01 8.54901969e-01
      7.96078444e-01 5.60784340e-01 6.66666687e-01 2.23529413e-01
      6.31372571e-01 8.82352948e-01 7.01960802e-01 0. 0. 0. 0.
      6.66666687e-01 7.92156875e-01 4.35294122e-01 5.64705908e-01
      5.25490224e-01 6.00000024e-01 4.90196079e-01 6.31372571e-01
      7.09803939e-01 0. 0. 0. 0. 4.94117647e-01 4.39215690e-01
      4.47058827e-01 2.15686277e-01 4.47058827e-01 1.13725491e-01
      1.45098045e-01 4.47058827e-01 5.80392182e-01 0. 0. 0. 0.
      2.35294122e-02 6.98039234e-01 6.39215708e-01 1.76470593e-01
      6.00000024e-01 3.68627459e-01 7.05882370e-01 6.39215708e-01
      1.72549024e-01 0. 0. 0. 0. 0. 5.09803951e-01 7.76470602e-01
      6.43137276e-01 6.31372571e-01 5.92156887e-01 7.84313738e-01
      5.84313750e-01 0. 0. 0. 0. 0. 0. 7.05882385e-02 4.82352942e-01
      6.23529434e-01 7.13725507e-01 4.98039216e-01 1.52941182e-01 0. 0.
      0. 0. 0. 0. 0. 0. 0. 4.50980395e-01 5.13725519e-01 1.76470593e-01
      0. 0. 0. 0. 0.</_>
    <_>
      0. 0. 0. 0. 0. 0. 0. 0. 0. 0. 0. 0. 0. 0. 0. 0. 0. 0. 0. 0. 0. 0.
      0. 0. 0. 0. 0. 0. 0. 0. 9.80392173e-02 5.21568656e-01
      4.58823532e-01 4.82352942e-01 5.72549045e-01 2.07843140e-01 0. 0.
      0. 0. 0. 4.70588244e-02 3.60784322e-01 3.49019617e-01
      3.76470596e-01 3.05882365e-01 4.50980395e-01 6.11764729e-01
      5.68627477e-01 2.27450982e-01 0. 0. 0. 0. 2.19607845e-01
      2.70588249e-01 5.09803951e-01 4.03921574e-01 7.56862760e-01
      4.82352942e-01 6.94117665e-01 5.09803951e-01 4.07843143e-01
      7.84313772e-03 0. 0. 2.00000003e-01 4.19607848e-01 7.17647076e-01
      5.84313750e-01 8.43137264e-01 8.86274517e-01 7.76470602e-01
      7.49019623e-01 6.70588255e-01 3.80392164e-01 2.39215687e-01 0. 0.
      4.07843143e-01 5.49019635e-01 8.62745106e-01 9.17647064e-01
      9.09803927e-01 9.09803927e-01 7.92156875e-01 8.54901969e-01
      7.41176486e-01 4.27450985e-01 2.47058824e-01 0. 0. 2.70588249e-01
      6.39215708e-01 8.27450991e-01 8.19607854e-01 8.62745106e-01
      7.80392170e-01 8.39215696e-01 7.64705896e-01 6.35294139e-01
      4.50980395e-01 2.19607845e-01 0. 0. 3.33333343e-01 7.37254918e-01
      8.58823538e-01 9.45098042e-01 9.25490201e-01 8.98039222e-01
      9.64705884e-01 9.41176474e-01 7.09803939e-01 4.82352942e-01
      2.62745112e-01 0. 0. 3.29411775e-01 7.52941191e-01 9.09803927e-01
      9.72549021e-01 9.96078432e-01 9.92156863e-01 9.88235295e-01
      9.88235295e-01 7.13725507e-01 3.60784322e-01 2.66666681e-01 0. 0.
      3.72549027e-01 5.21568656e-01 1.84313729e-01 2.03921571e-01
      8.27450991e-01 8.94117653e-01 6.78431392e-01 3.01960796e-01
      8.07843149e-01 2.62745112e-01 2.86274523e-01 0. 0. 4.31372553e-01
      5.96078455e-01 9.60784316e-01 7.84313738e-01 8.19607854e-01
      8.39215696e-01 5.45098066e-01 2.82352954e-01 4.78431374e-01
      3.33333343e-01 4.70588237e-01 0. 0. 6.58823550e-01 2.11764708e-01
      9.41176489e-02 9.84313726e-01 5.64705908e-01 8.27450991e-01
      4.39215690e-01 5.52941203e-01 9.41176489e-02 2.43137255e-01
      6.66666687e-01 0. 0. 7.41176486e-01 6.23529434e-01 6.15686297e-01
      4.43137258e-01 6.78431392e-01 7.45098054e-01 3.45098048e-01
      6.27451003e-01 5.96078455e-01 4.94117647e-01 5.13725519e-01 0. 0.
      7.52941191e-01 7.80392170e-01 8.58823538e-01 7.64705896e-01
      3.56862754e-01 7.84313738e-01 3.05882365e-01 8.19607854e-01
      7.80392170e-01 8.78431380e-01 4.82352942e-01 0. 0. 4.78431374e-01
      9.80392158e-01 9.72549021e-01 7.37254918e-01 3.64705890e-01
      8.11764717e-01 2.58823544e-01 8.39215696e-01 8.78431380e-01
      9.21568632e-01 3.17647070e-01 0. 0. 2.11764708e-01 9.49019611e-01
      8.94117653e-01 9.25490201e-01 4.54901963e-01 1. 3.21568638e-01
      9.72549021e-01 7.56862760e-01 6.94117665e-01 1.88235298e-01 0. 0.
      4.70588244e-02 8.54901969e-01 7.96078444e-01 8.31372559e-01
      4.82352942e-01 4.90196079e-01 3.49019617e-01 9.05882359e-01
      8.82352948e-01 7.09803939e-01 8.23529437e-02 0. 0. 0.
      7.49019623e-01 8.94117653e-01 7.56862760e-01 4.31372553e-01
      6.90196097e-01 5.25490224e-01 6.62745118e-01 9.01960790e-01
      5.37254930e-01 3.92156886e-03 0. 0. 0. 6.43137276e-01
      9.25490201e-01 7.13725507e-01 8.35294127e-01 8.31372559e-01
      8.07843149e-01 6.74509823e-01 6.66666687e-01 6.86274529e-01 0. 0.
      0. 0. 6.86274529e-01 4.50980395e-01 6.98039234e-01 8.03921580e-01
      8.98039222e-01 5.60784340e-01 4.94117647e-01 7.37254918e-01
      6.78431392e-01 0. 0. 0. 0. 4.35294122e-01 6.58823550e-01
      5.21568656e-01 4.90196079e-01 9.17647064e-01 7.13725507e-01
      6.66666687e-01 6.90196097e-01 3.88235301e-01 0. 0. 0. 0. 0.
      7.17647076e-01 6.70588255e-01 6.58823550e-01 6.00000024e-01
      7.56862760e-01 5.37254930e-01 4.35294122e-01 0. 0. 0. 0. 0. 0.
      1.76470593e-01 5.49019635e-01 6.50980413e-01 6.94117665e-01
      8.19607854e-01 6.00000024e-01 1.13725491e-01 0. 0. 0. 0. 0. 0. 0.
      0. 2.70588249e-01 5.92156887e-01 4.15686280e-01 0. 0. 0. 0. 0.</_>
    <_>
      0. 0. 0. 0. 0. 0. 0. 0. 0. 0. 0. 0. 0. 0. 0. 0. 0. 0.
      7.84313772e-03 1.41176477e-01 6.66666701e-02 0. 0. 0. 0. 0. 0. 0.
      0. 8.62745121e-02 4.27450985e-01 5.21568656e-01 5.37254930e-01
      4.82352942e-01 3.68627459e-01 3.52941193e-02 0. 0. 0. 0. 0.
      3.01960796e-01 3.88235301e-01 5.17647088e-01 6.11764729e-01
      6.86274529e-01 5.33333361e-01 5.21568656e-01 4.11764711e-01
      2.31372550e-01 0. 0. 0. 0. 4.35294122e-01 5.49019635e-01
      7.17647076e-01 8.11764717e-01 8.47058833e-01 7.60784328e-01
      6.27451003e-01 5.05882382e-01 2.39215687e-01 0. 0. 0.
      2.35294119e-01 5.56862772e-01 6.98039234e-01 8.78431380e-01
      9.52941179e-01 8.31372559e-01 9.17647064e-01 8.35294127e-01
      5.60784340e-01 3.76470596e-01 2.66666681e-01 0. 0. 3.56862754e-01
      6.03921592e-01 8.15686285e-01 8.90196085e-01 9.25490201e-01
      9.72549021e-01 9.05882359e-01 8.74509811e-01 6.86274529e-01
      4.62745100e-01 3.09803933e-01 0. 0. 4.11764711e-01 6.39215708e-01
      8.00000012e-01 8.90196085e-01 9.09803927e-01 9.05882359e-01
      8.94117653e-01 8.00000012e-01 6.58823550e-01 6.00000024e-01
      4.35294122e-01 1.84313729e-01 5.09803928e-02 4.54901963e-01
      5.68627477e-01 7.60784328e-01 8.70588243e-01 8.58823538e-01
      8.66666675e-01 8.90196085e-01 8.11764717e-01 7.56862760e-01
      6.27451003e-01 4.39215690e-01 1.60784319e-01 3.52941193e-02
      4.82352942e-01 5.09803951e-01 8.23529422e-01 9.41176474e-01
      9.72549021e-01 9.41176474e-01 9.84313726e-01 9.52941179e-01
      8.15686285e-01 4.70588237e-01 4.19607848e-01 3.09803933e-01
      5.88235296e-02 4.11764711e-01 7.84313738e-01 7.88235307e-01
      8.74509811e-01 9.37254906e-01 8.94117653e-01 8.43137264e-01
      6.00000024e-01 8.15686285e-01 4.39215690e-01 2.47058824e-01
      1.49019614e-01 0. 3.09803933e-01 3.56862754e-01 6.35294139e-01
      3.76470596e-01 7.72549033e-01 9.45098042e-01 5.13725519e-01
      9.05882359e-01 4.19607848e-01 5.88235319e-01 2.07843140e-01 0. 0.
      2.19607845e-01 4.47058827e-01 1.72549024e-01 8.70588243e-01
      8.86274517e-01 7.13725507e-01 6.90196097e-01 9.96078432e-01
      1.29411772e-01 5.64705908e-01 4.31372561e-02 0. 0. 1.72549024e-01
      4.35294122e-01 6.74509823e-01 8.62745106e-01 1.92156866e-01
      7.76470602e-01 3.80392164e-01 7.76470602e-01 7.41176486e-01
      5.49019635e-01 4.31372553e-01 0. 0. 3.13725501e-01 6.90196097e-01
      6.82352960e-01 7.76470602e-01 2.98039228e-01 5.80392182e-01
      8.47058833e-01 5.80392182e-01 7.25490212e-01 5.96078455e-01
      2.39215687e-01 0. 0. 2.19607845e-01 5.72549045e-01 6.90196097e-01
      9.92156863e-01 4.82352942e-01 6.58823550e-01 4.90196079e-01
      8.90196085e-01 7.21568644e-01 6.78431392e-01 3.13725509e-02 0. 0.
      0. 7.52941191e-01 8.78431380e-01 9.84313726e-01 4.27450985e-01
      7.96078444e-01 4.98039216e-01 3.76470596e-01 7.72549033e-01
      2.62745112e-01 2.39215687e-01 0. 0. 0. 8.58823538e-01
      9.84313726e-01 9.52941179e-01 4.78431374e-01 7.56862760e-01
      1.45098045e-01 6.74509823e-01 8.86274517e-01 7.72549033e-01
      1.17647061e-02 0. 0. 0. 7.21568644e-01 6.07843161e-01
      9.76470590e-01 8.78431380e-01 7.49019623e-01 9.01960790e-01
      8.31372559e-01 4.15686280e-01 6.86274529e-01 0. 0. 0. 0.
      6.23529434e-01 6.23529434e-01 9.29411769e-01 9.41176474e-01
      8.62745106e-01 9.25490201e-01 8.74509811e-01 9.21568632e-01
      7.17647076e-01 0. 0. 0. 0. 5.92156887e-01 8.74509811e-01
      3.49019617e-01 9.96078432e-01 9.09803927e-01 6.31372571e-01
      2.94117659e-01 8.31372559e-01 7.05882370e-01 0. 0. 0. 0.
      3.13725501e-01 9.88235295e-01 7.17647076e-01 7.72549033e-01
      9.76470590e-01 6.58823550e-01 7.05882370e-01 8.94117653e-01
      3.80392164e-01 0. 0. 0. 0. 0. 7.41176486e-01 8.11764717e-01
      7.96078444e-01 9.13725495e-01 7.29411781e-01 7.72549033e-01
      6.50980413e-01 0. 0. 0. 0. 0. 0. 1.68627456e-01 6.27451003e-01
      6.15686297e-01 6.90196097e-01 4.90196079e-01 4.19607848e-01 0. 0.
      0. 0. 0. 0. 0. 0. 1.96078438e-02 4.23529416e-01 4.54901963e-01
      1.80392161e-01 0. 0. 0. 0. 0.</_>
    <_>
      0. 0. 0. 0. 0. 0. 0. 0. 0. 0. 0. 0. 0. 0. 0. 0. 0. 0. 0.
      3.13725509e-02 0. 0. 0. 0. 0. 0. 0. 0. 0. 0. 2.03921571e-01
      2.07843140e-01 3.52941193e-02 2.74509806e-02 7.84313772e-03
      1.88235298e-01 0. 0. 0. 0. 0. 1.76470593e-01 5.49019612e-02
      4.31372561e-02 1.52941182e-01 2.35294119e-01 9.80392173e-02
      1.09803922e-01 2.74509817e-01 3.13725509e-02 0. 0. 0.
      7.84313772e-03 2.74509806e-02 1.13725491e-01 7.84313772e-03
      3.64705890e-01 6.54901981e-01 3.21568638e-01 1.01960786e-01
      9.80392173e-02 1.41176477e-01 0. 0. 0. 1.45098045e-01
      8.62745121e-02 2.00000003e-01 7.84313772e-03 8.11764717e-01
      8.94117653e-01 7.92156875e-01 5.88235319e-01 3.17647070e-01
      2.82352954e-01 1.13725491e-01 0. 0. 2.66666681e-01 7.45098069e-02
      5.13725519e-01 8.11764717e-01 9.21568632e-01 9.49019611e-01
      8.98039222e-01 7.09803939e-01 4.27450985e-01 3.09803933e-01
      1.92156866e-01 0. 0. 2.43137255e-01 3.68627459e-01 6.74509823e-01
      8.70588243e-01 9.41176474e-01 9.60784316e-01 9.41176474e-01
      7.96078444e-01 6.39215708e-01 4.19607848e-01 1.72549024e-01
      1.56862751e-01 3.52941193e-02 1.80392161e-01 4.82352942e-01
      7.64705896e-01 8.58823538e-01 9.33333337e-01 9.56862748e-01
      8.98039222e-01 8.35294127e-01 7.17647076e-01 4.19607848e-01
      2.94117659e-01 7.84313772e-03 0. 1.17647059e-01 5.68627477e-01
      8.31372559e-01 9.25490201e-01 9.80392158e-01 9.21568632e-01
      9.68627453e-01 8.82352948e-01 7.92156875e-01 4.31372553e-01
      3.45098048e-01 0. 0. 4.00000006e-01 3.72549027e-01 3.56862754e-01
      4.82352942e-01 9.05882359e-01 9.68627453e-01 8.90196085e-01
      5.64705908e-01 2.11764708e-01 3.60784322e-01 1.92156866e-01 0. 0.
      4.35294122e-01 6.03921592e-01 8.27450991e-01 5.09803951e-01
      6.50980413e-01 9.37254906e-01 6.78431392e-01 4.50980395e-01
      7.80392170e-01 4.58823532e-01 1.92156866e-01 0. 0. 4.66666669e-01
      3.01960796e-01 2.27450982e-01 9.68627453e-01 5.13725519e-01
      8.94117653e-01 4.58823532e-01 9.17647064e-01 2.39215687e-01
      4.27450985e-01 3.52941185e-01 0. 0. 5.60784340e-01 5.13725519e-01
      4.78431374e-01 8.90196085e-01 5.76470613e-01 9.01960790e-01
      5.45098066e-01 8.78431380e-01 5.13725519e-01 4.39215690e-01
      4.78431374e-01 0. 0. 4.54901963e-01 7.09803939e-01 8.19607854e-01
      7.80392170e-01 7.96078444e-01 8.86274517e-01 6.35294139e-01
      7.96078444e-01 7.92156875e-01 6.39215708e-01 4.11764711e-01 0.
      1.17647061e-02 4.31372553e-01 8.11764717e-01 8.62745106e-01
      8.74509811e-01 6.66666687e-01 9.60784316e-01 5.17647088e-01
      8.86274517e-01 8.47058833e-01 7.56862760e-01 2.39215687e-01 0. 0.
      2.03921571e-01 7.01960802e-01 9.17647064e-01 9.21568632e-01
      8.39215696e-01 9.80392158e-01 7.84313738e-01 9.49019611e-01
      8.70588243e-01 6.31372571e-01 2.39215687e-01 0. 0. 0.
      6.78431392e-01 8.90196085e-01 9.09803927e-01 6.15686297e-01
      7.33333349e-01 5.29411793e-01 9.21568632e-01 8.58823538e-01
      5.96078455e-01 4.31372553e-01 0. 0. 0. 6.39215708e-01
      8.19607854e-01 7.60784328e-01 6.82352960e-01 7.76470602e-01
      7.60784328e-01 7.41176486e-01 7.84313738e-01 5.13725519e-01
      1.21568628e-01 0. 0. 0. 5.88235319e-01 7.76470602e-01
      7.41176486e-01 5.68627477e-01 7.33333349e-01 5.88235319e-01
      6.66666687e-01 7.41176486e-01 4.39215690e-01 0. 0. 0. 0.
      4.54901963e-01 6.94117665e-01 4.94117647e-01 5.29411793e-01
      6.50980413e-01 4.39215690e-01 5.88235319e-01 6.82352960e-01
      3.84313732e-01 0. 0. 0. 0. 1.68627456e-01 5.56862772e-01
      6.70588255e-01 5.17647088e-01 5.96078455e-01 4.50980395e-01
      6.19607866e-01 5.33333361e-01 6.27451017e-02 0. 0. 0. 0. 0.
      4.19607848e-01 5.49019635e-01 7.80392170e-01 8.74509811e-01
      7.21568644e-01 4.74509805e-01 3.88235301e-01 0. 0. 0. 0. 0. 0. 0.
      4.07843143e-01 5.52941203e-01 6.43137276e-01 4.98039216e-01
      3.09803933e-01 0. 0. 0. 0. 0. 0. 0. 0. 0. 0. 1.13725491e-01 0. 0.
      0. 0. 0. 0.</_>
    <_>
      0. 0. 0. 0. 0. 0. 0. 0. 0. 0. 0. 0. 0. 0. 0. 0. 0. 0. 0.
      3.01960796e-01 1.56862751e-01 0. 0. 0. 0. 0. 0. 0. 0.
      5.49019612e-02 1.21568628e-01 5.05882382e-01 7.33333349e-01
      5.88235319e-01 4.27450985e-01 1.68627456e-01 0. 0. 0. 0. 0.
      5.88235296e-02 2.00000003e-01 2.90196091e-01 7.96078444e-01
      8.94117653e-01 7.56862760e-01 6.78431392e-01 4.27450985e-01
      9.80392173e-02 0. 0. 0. 0. 2.00000003e-01 6.74509823e-01
      7.17647076e-01 9.37254906e-01 9.21568632e-01 8.86274517e-01
      7.92156875e-01 5.33333361e-01 2.35294119e-01 0. 0. 0.
      5.49019612e-02 7.37254918e-01 3.68627459e-01 9.33333337e-01
      8.86274517e-01 9.76470590e-01 9.17647064e-01 9.09803927e-01
      6.23529434e-01 2.86274523e-01 1.25490203e-01 0. 0. 2.70588249e-01
      6.15686297e-01 5.17647088e-01 9.49019611e-01 9.52941179e-01
      9.49019611e-01 8.98039222e-01 8.74509811e-01 7.09803939e-01
      3.49019617e-01 3.37254912e-01 0. 0. 1.52941182e-01 6.03921592e-01
      3.37254912e-01 7.84313738e-01 8.98039222e-01 8.94117653e-01
      8.00000012e-01 7.41176486e-01 7.05882370e-01 5.01960814e-01
      2.07843140e-01 0. 0. 2.98039228e-01 2.70588249e-01 8.78431380e-01
      9.09803927e-01 9.33333337e-01 9.64705884e-01 9.09803927e-01
      8.62745106e-01 7.52941191e-01 4.74509805e-01 1.33333340e-01 0. 0.
      3.92156869e-01 7.33333349e-01 8.74509811e-01 9.92156863e-01
      9.92156863e-01 1. 9.88235295e-01 9.49019611e-01 7.13725507e-01
      5.45098066e-01 1.25490203e-01 0. 1.17647061e-02 3.84313732e-01
      3.80392164e-01 2.62745112e-01 5.17647088e-01 7.45098054e-01
      9.25490201e-01 5.96078455e-01 1.92156866e-01 1.41176477e-01
      2.15686277e-01 1.72549024e-01 0. 0. 1.41176477e-01 3.52941185e-01
      6.50980413e-01 4.66666669e-01 3.96078438e-01 8.23529422e-01
      4.27450985e-01 4.74509805e-01 3.96078438e-01 5.01960814e-01
      1.80392161e-01 0. 0. 3.88235301e-01 1.68627456e-01 0.
      8.07843149e-01 4.27450985e-01 9.76470590e-01 3.09803933e-01
      9.41176474e-01 1.09803922e-01 1.56862751e-01 3.41176480e-01 0. 0.
      6.19607866e-01 4.00000006e-01 7.37254918e-01 7.80392170e-01
      4.54901963e-01 8.66666675e-01 4.27450985e-01 6.66666687e-01
      8.50980401e-01 2.78431386e-01 4.90196079e-01 0. 0. 6.54901981e-01
      7.76470602e-01 8.03921580e-01 8.78431380e-01 4.58823532e-01
      6.07843161e-01 2.94117659e-01 7.17647076e-01 7.76470602e-01
      7.25490212e-01 5.64705908e-01 0. 0. 6.54901981e-01 8.39215696e-01
      8.86274517e-01 9.17647064e-01 2.70588249e-01 5.52941203e-01
      1.80392161e-01 8.70588243e-01 7.56862760e-01 7.60784328e-01
      5.33333361e-01 0. 0. 5.25490224e-01 9.45098042e-01 9.92156863e-01
      9.05882359e-01 4.70588237e-01 1. 5.72549045e-01 9.64705884e-01
      9.64705884e-01 8.39215696e-01 4.47058827e-01 0. 0. 3.13725501e-01
      9.45098042e-01 9.37254906e-01 6.62745118e-01 1.80392161e-01
      4.50980395e-01 1.72549024e-01 8.19607854e-01 9.01960790e-01
      7.96078444e-01 1.96078435e-01 0. 0. 9.80392173e-02 8.66666675e-01
      9.41176474e-01 7.84313738e-01 5.49019635e-01 7.29411781e-01
      3.45098048e-01 6.98039234e-01 8.15686285e-01 7.01960802e-01
      2.35294122e-02 0. 0. 0. 7.96078444e-01 7.84313738e-01
      6.39215708e-01 7.41176486e-01 9.64705884e-01 5.84313750e-01
      4.86274511e-01 6.82352960e-01 7.09803939e-01 0. 0. 0. 0.
      8.54901969e-01 4.58823532e-01 2.35294119e-01 3.13725501e-01
      4.94117647e-01 3.17647070e-01 5.05882382e-01 5.52941203e-01
      7.41176486e-01 0. 0. 0. 0. 5.96078455e-01 8.39215696e-01
      4.94117647e-01 4.54901963e-01 5.21568656e-01 4.15686280e-01
      4.70588237e-01 8.74509811e-01 1.45098045e-01 0. 0. 0. 0. 0.
      5.80392182e-01 8.58823538e-01 5.17647088e-01 4.23529416e-01
      3.76470596e-01 6.39215708e-01 5.68627477e-01 0. 0. 0. 0. 0. 0.
      1.21568628e-01 7.84313738e-01 4.94117647e-01 7.72549033e-01
      6.43137276e-01 4.23529416e-01 0. 0. 0. 0. 0. 0. 0. 0.
      3.92156886e-03 3.25490206e-01 3.49019617e-01 1.25490203e-01 0. 0.
      0. 0. 0.</_>
    <_>
      0. 0. 0. 0. 0. 0. 0. 0. 0. 0. 0. 0. 0. 0. 0. 0. 0. 0. 0. 0. 0. 0.
      0. 0. 0. 0. 0. 0. 0. 0. 1.56862754e-02 1.33333340e-01
      4.31372561e-02 1.49019614e-01 1.76470593e-01 6.66666701e-02 0. 0.
      0. 0. 0. 0. 2.03921571e-01 2.27450982e-01 2.31372550e-01
      3.49019617e-01 2.62745112e-01 2.47058824e-01 5.49019612e-02
      8.62745121e-02 0. 0. 0. 0. 3.72549027e-01 5.29411793e-01
      8.03921580e-01 7.96078444e-01 8.00000012e-01 7.33333349e-01
      6.43137276e-01 3.68627459e-01 1.41176477e-01 0. 0. 0.
      1.80392161e-01 4.35294122e-01 6.98039234e-01 8.98039222e-01
      9.41176474e-01 9.33333337e-01 8.86274517e-01 7.52941191e-01
      4.82352942e-01 2.86274523e-01 2.07843140e-01 0. 0. 2.50980407e-01
      4.58823532e-01 7.01960802e-01 9.45098042e-01 9.84313726e-01
      9.64705884e-01 9.64705884e-01 8.62745106e-01 5.64705908e-01
      4.03921574e-01 1.52941182e-01 0. 0. 2.90196091e-01 5.41176498e-01
      7.52941191e-01 8.62745106e-01 9.45098042e-01 9.76470590e-01
      9.25490201e-01 8.82352948e-01 6.50980413e-01 5.45098066e-01
      3.60784322e-01 0. 0. 3.13725501e-01 6.50980413e-01 7.76470602e-01
      8.35294127e-01 9.33333337e-01 9.41176474e-01 8.66666675e-01
      7.68627465e-01 5.96078455e-01 5.45098066e-01 3.21568638e-01 0. 0.
      4.35294122e-01 5.80392182e-01 6.27451003e-01 9.25490201e-01
      9.84313726e-01 9.96078432e-01 9.60784316e-01 8.90196085e-01
      5.29411793e-01 3.41176480e-01 3.05882365e-01 0. 0. 3.80392164e-01
      3.37254912e-01 2.78431386e-01 2.54901975e-01 8.74509811e-01
      9.60784316e-01 4.43137258e-01 2.35294119e-01 2.94117659e-01
      4.07843143e-01 2.78431386e-01 0. 0. 3.80392164e-01 5.29411793e-01
      7.25490212e-01 6.27451003e-01 7.13725507e-01 9.17647064e-01
      6.58823550e-01 5.92156887e-01 4.98039216e-01 4.47058827e-01
      3.84313732e-01 0. 0. 4.70588237e-01 2.62745112e-01 2.82352954e-01
      9.49019611e-01 6.82352960e-01 6.47058845e-01 9.05882359e-01
      6.19607866e-01 7.84313738e-01 2.74509817e-01 4.62745100e-01 0. 0.
      5.05882382e-01 4.35294122e-01 7.21568644e-01 8.31372559e-01
      5.72549045e-01 6.39215708e-01 5.64705908e-01 7.92156875e-01
      6.23529434e-01 4.27450985e-01 4.27450985e-01 0. 5.09803928e-02
      3.49019617e-01 8.15686285e-01 9.17647064e-01 9.68627453e-01
      5.60784340e-01 7.37254918e-01 5.56862772e-01 8.78431380e-01
      9.52941179e-01 7.56862760e-01 4.43137258e-01 0. 2.74509806e-02
      4.19607848e-01 8.98039222e-01 9.45098042e-01 9.60784316e-01
      5.13725519e-01 7.17647076e-01 4.54901963e-01 9.72549021e-01
      8.03921580e-01 8.74509811e-01 4.50980395e-01 0. 0. 2.86274523e-01
      8.54901969e-01 9.37254906e-01 7.80392170e-01 5.92156887e-01
      8.94117653e-01 7.68627465e-01 8.70588243e-01 9.09803927e-01
      8.39215696e-01 3.84313732e-01 0. 0. 1.01960786e-01 8.82352948e-01
      9.64705884e-01 6.90196097e-01 8.39215696e-01 3.96078438e-01
      7.01960802e-01 8.31372559e-01 9.17647064e-01 7.96078444e-01
      1.96078435e-01 0. 0. 0. 8.58823538e-01 8.78431380e-01
      7.29411781e-01 6.43137276e-01 7.72549033e-01 6.39215708e-01
      6.03921592e-01 8.23529422e-01 7.25490212e-01 1.56862754e-02 0. 0.
      0. 7.92156875e-01 8.11764717e-01 5.88235319e-01 8.35294127e-01
      7.92156875e-01 7.41176486e-01 4.07843143e-01 8.07843149e-01
      5.76470613e-01 0. 0. 0. 0. 6.54901981e-01 7.13725507e-01
      2.82352954e-01 8.03921580e-01 6.00000024e-01 9.56862748e-01
      4.47058827e-01 7.52941191e-01 4.98039216e-01 0. 0. 0. 0.
      4.43137258e-01 7.80392170e-01 6.19607866e-01 4.98039216e-01
      7.96078444e-01 4.19607848e-01 6.39215708e-01 7.33333349e-01
      4.66666669e-01 0. 0. 0. 0. 0. 6.00000024e-01 7.45098054e-01
      4.39215690e-01 3.33333343e-01 5.72549045e-01 6.78431392e-01
      5.37254930e-01 0. 0. 0. 0. 0. 0. 1.21568628e-01 7.09803939e-01
      7.92156875e-01 7.56862760e-01 7.25490212e-01 4.94117647e-01 0. 0.
      0. 0. 0. 0. 0. 0. 0. 3.64705890e-01 4.23529416e-01 2.00000003e-01
      0. 0. 0. 0. 0.</_>
    <_>
      0. 0. 0. 0. 0. 0. 0. 0. 0. 0. 0. 0. 0. 0. 0. 0. 0. 0. 0. 0. 0. 0.
      0. 0. 0. 0. 0. 0. 0. 7.84313772e-03 0. 2.19607845e-01
      7.84313753e-02 1.64705887e-01 1.13725491e-01 5.49019612e-02 0. 0.
      0. 0. 0. 1.29411772e-01 3.17647070e-01 2.31372550e-01
      2.47058824e-01 2.74509806e-02 8.62745121e-02 1.41176477e-01
      1.68627456e-01 1.49019614e-01 0. 0. 0. 3.92156886e-03
      4.66666669e-01 7.05882370e-01 3.76470596e-01 3.17647070e-01
      4.54901963e-01 2.66666681e-01 2.11764708e-01 1.25490203e-01
      4.27450985e-01 5.49019612e-02 0. 0. 2.90196091e-01 5.25490224e-01
      7.37254918e-01 7.64705896e-01 8.35294127e-01 9.41176489e-02
      3.76470596e-01 3.49019617e-01 2.50980407e-01 2.35294119e-01
      4.31372561e-02 0. 0. 3.64705890e-01 8.00000012e-01 8.66666675e-01
      9.72549021e-01 9.33333337e-01 3.68627459e-01 5.41176498e-01
      5.25490224e-01 2.43137255e-01 5.09803928e-02 1.33333340e-01
      2.86274523e-01 0. 5.72549045e-01 8.82352948e-01 9.49019611e-01
      9.84313726e-01 9.21568632e-01 9.49019611e-01 8.11764717e-01
      6.39215708e-01 3.88235301e-01 1.13725491e-01 1.96078435e-01
      2.98039228e-01 1.09803922e-01 6.39215708e-01 9.09803927e-01
      8.74509811e-01 8.98039222e-01 9.09803927e-01 9.29411769e-01
      8.27450991e-01 7.52941191e-01 5.13725519e-01 2.90196091e-01
      1.21568628e-01 2.54901975e-01 2.47058824e-01 6.31372571e-01
      8.82352948e-01 9.13725495e-01 9.84313726e-01 9.80392158e-01
      9.60784316e-01 9.68627453e-01 8.58823538e-01 6.31372571e-01
      4.03921574e-01 1.05882354e-01 9.01960805e-02 2.19607845e-01
      4.74509805e-01 3.80392164e-01 3.41176480e-01 4.00000006e-01
      9.52941179e-01 9.49019611e-01 7.60784328e-01 2.94117659e-01
      2.78431386e-01 2.47058824e-01 1.52941182e-01 0. 1.60784319e-01
      3.80392164e-01 7.09803939e-01 7.33333349e-01 5.52941203e-01
      7.17647076e-01 9.25490201e-01 4.19607848e-01 4.19607848e-01
      6.58823550e-01 3.25490206e-01 1.88235298e-01 0. 4.31372561e-02
      7.25490212e-01 4.66666669e-01 1.52941182e-01 3.45098048e-01
      4.90196079e-01 8.94117653e-01 7.21568644e-01 2.03921571e-01
      4.00000006e-01 4.82352942e-01 3.01960796e-01 0. 0. 7.92156875e-01
      4.27450985e-01 3.52941185e-01 5.92156887e-01 5.68627477e-01
      7.60784328e-01 4.54901963e-01 6.98039234e-01 3.84313732e-01
      6.11764729e-01 2.23529413e-01 0. 0. 8.43137264e-01 8.03921580e-01
      9.21568632e-01 8.27450991e-01 6.50980413e-01 7.80392170e-01
      4.11764711e-01 8.54901969e-01 7.45098054e-01 7.41176486e-01
      9.80392173e-02 0. 0. 8.07843149e-01 9.68627453e-01 9.17647064e-01
      8.94117653e-01 5.41176498e-01 7.76470602e-01 3.76470596e-01
      7.52941191e-01 8.11764717e-01 7.45098054e-01 3.49019617e-01 0. 0.
      6.31372571e-01 9.56862748e-01 9.80392158e-01 9.88235295e-01
      5.33333361e-01 9.88235295e-01 6.11764729e-01 8.86274517e-01
      6.78431392e-01 7.13725507e-01 1.96078435e-01 0. 0. 3.09803933e-01
      9.33333337e-01 9.92156863e-01 9.88235295e-01 5.17647088e-01
      8.11764717e-01 2.86274523e-01 9.52941179e-01 8.07843149e-01
      4.94117647e-01 1.17647061e-02 0. 0. 9.41176489e-02 9.45098042e-01
      9.49019611e-01 8.15686285e-01 6.74509823e-01 6.47058845e-01
      4.39215690e-01 6.27451003e-01 7.84313738e-01 4.43137258e-01 0. 0.
      0. 0. 8.70588243e-01 8.62745106e-01 8.94117653e-01 8.94117653e-01
      7.56862760e-01 6.82352960e-01 6.50980413e-01 5.96078455e-01
      4.00000006e-01 0. 0. 0. 0. 7.37254918e-01 8.70588243e-01
      3.92156869e-01 3.41176480e-01 3.76470596e-01 3.84313732e-01
      6.07843161e-01 5.05882382e-01 2.43137255e-01 0. 0. 0. 0.
      4.11764711e-01 8.50980401e-01 8.70588243e-01 8.43137264e-01
      6.98039234e-01 6.82352960e-01 7.52941191e-01 4.98039216e-01 0. 0.
      0. 0. 0. 0. 7.52941191e-01 8.27450991e-01 8.74509811e-01
      6.94117665e-01 7.76470602e-01 5.68627477e-01 2.94117659e-01 0. 0.
      0. 0. 0. 0. 2.62745112e-01 7.29411781e-01 8.70588243e-01
      8.82352948e-01 7.56862760e-01 3.84313732e-01 0. 0. 0. 0. 0. 0. 0.
      0. 2.35294122e-02 3.96078438e-01 4.39215690e-01 2.78431386e-01 0.
      0. 0. 0. 0.</_>
    <_>
      0. 0. 0. 0. 0. 0. 0. 0. 0. 0. 0. 0. 0. 0. 0. 0. 0. 0. 0. 0. 0. 0.
      0. 0. 0. 0. 0. 0. 0. 3.92156886e-03 3.21568638e-01 9.41176489e-02
      8.23529437e-02 2.58823544e-01 7.84313772e-03 0. 0. 0. 0. 0. 0.
      7.84313772e-03 3.05882365e-01 2.82352954e-01 2.07843140e-01
      1.72549024e-01 3.13725509e-02 3.92156877e-02 2.74509806e-02
      2.74509806e-02 0. 0. 0. 0. 1.17647061e-02 1.05882354e-01
      3.49019617e-01 3.56862754e-01 1.49019614e-01 6.27451017e-02
      9.80392173e-02 1.33333340e-01 4.35294122e-01 0. 0. 0.
      1.68627456e-01 3.92156886e-03 2.31372550e-01 3.17647070e-01
      2.03921571e-01 3.64705890e-01 6.78431392e-01 4.39215690e-01
      3.56862754e-01 2.47058824e-01 4.70588244e-02 0. 0. 7.05882385e-02
      1.56862754e-02 5.49019612e-02 3.17647070e-01 8.07843149e-01
      8.54901969e-01 8.86274517e-01 6.15686297e-01 3.96078438e-01
      5.49019612e-02 7.84313753e-02 0. 3.92156886e-03 2.82352954e-01
      3.37254912e-01 3.45098048e-01 7.68627465e-01 8.82352948e-01
      8.66666675e-01 9.25490201e-01 7.17647076e-01 5.09803951e-01
      2.78431386e-01 1.05882354e-01 0. 5.88235296e-02 2.27450982e-01
      4.86274511e-01 7.33333349e-01 9.01960790e-01 8.70588243e-01
      9.33333337e-01 8.74509811e-01 6.98039234e-01 5.33333361e-01
      3.33333343e-01 2.00000003e-01 9.41176489e-02 1.29411772e-01
      4.27450985e-01 5.52941203e-01 7.68627465e-01 9.60784316e-01 1.
      9.68627453e-01 9.96078432e-01 8.74509811e-01 5.84313750e-01
      4.07843143e-01 1.25490203e-01 1.56862754e-02 0. 4.11764711e-01
      4.19607848e-01 3.05882365e-01 4.19607848e-01 8.43137264e-01
      9.92156863e-01 5.84313750e-01 3.05882365e-01 1.45098045e-01
      3.64705890e-01 7.84313753e-02 0. 0. 3.96078438e-01 6.11764729e-01
      4.15686280e-01 4.82352942e-01 4.62745100e-01 9.09803927e-01
      2.98039228e-01 5.13725519e-01 5.13725519e-01 4.39215690e-01
      1.25490203e-01 0. 0. 6.66666687e-01 3.41176480e-01 1.52941182e-01
      9.88235295e-01 5.09803951e-01 8.47058833e-01 7.09803939e-01
      3.41176480e-01 8.98039222e-01 5.96078455e-01 3.45098048e-01 0. 0.
      7.09803939e-01 7.05882370e-01 6.39215708e-01 9.21568632e-01
      6.07843161e-01 9.13725495e-01 7.17647076e-01 8.74509811e-01
      4.86274511e-01 6.62745118e-01 6.86274529e-01 1.76470593e-01 0.
      6.78431392e-01 9.21568632e-01 9.41176474e-01 8.23529422e-01
      7.41176486e-01 8.35294127e-01 6.00000024e-01 9.49019611e-01
      8.90196085e-01 7.88235307e-01 5.76470613e-01 0. 0. 6.27451003e-01
      9.68627453e-01 9.76470590e-01 9.37254906e-01 5.80392182e-01
      8.58823538e-01 5.01960814e-01 9.17647064e-01 9.49019611e-01
      8.78431380e-01 5.01960814e-01 0. 0. 4.11764711e-01 9.52941179e-01
      9.92156863e-01 9.45098042e-01 7.37254918e-01 1. 6.47058845e-01
      9.60784316e-01 9.52941179e-01 8.50980401e-01 3.01960796e-01 0. 0.
      1.49019614e-01 8.90196085e-01 9.64705884e-01 9.25490201e-01
      5.17647088e-01 8.07843149e-01 6.66666687e-01 9.49019611e-01
      9.21568632e-01 7.33333349e-01 1.49019614e-01 0. 0. 0.
      8.07843149e-01 7.49019623e-01 7.29411781e-01 6.78431392e-01
      7.09803939e-01 5.64705908e-01 7.37254918e-01 8.35294127e-01
      6.43137276e-01 2.23529413e-01 0. 0. 0. 6.82352960e-01
      6.50980413e-01 6.62745118e-01 7.88235307e-01 6.74509823e-01
      6.00000024e-01 6.19607866e-01 5.68627477e-01 5.60784340e-01
      1.05882354e-01 0. 0. 0. 6.58823550e-01 7.13725507e-01
      3.84313732e-01 4.35294122e-01 4.98039216e-01 6.47058845e-01
      4.58823532e-01 5.68627477e-01 4.39215690e-01 0. 0. 0. 0.
      3.49019617e-01 7.60784328e-01 7.29411781e-01 5.33333361e-01
      9.49019611e-01 4.78431374e-01 7.13725507e-01 7.37254918e-01
      1.92156866e-01 0. 0. 0. 0. 0. 6.62745118e-01 6.27451003e-01
      5.25490224e-01 5.76470613e-01 5.49019635e-01 5.41176498e-01
      5.17647088e-01 0. 0. 0. 0. 0. 0. 1.60784319e-01 6.23529434e-01
      7.41176486e-01 6.94117665e-01 6.86274529e-01 4.19607848e-01 0. 0.
      0. 0. 0. 0. 0. 0. 6.66666701e-02 3.45098048e-01 5.76470613e-01
      1.45098045e-01 0. 0. 0. 0. 0.</_>
    <_>
      0. 0. 0. 0. 0. 0. 0. 0. 0. 0. 0. 0. 0. 0. 0. 0. 0. 0. 0. 0. 0. 0.
      0. 0. 0. 0. 0. 0. 0. 0. 5.09803928e-02 2.07843140e-01
      1.29411772e-01 2.90196091e-01 3.09803933e-01 0. 0. 0. 0. 0. 0.
      7.84313772e-03 2.43137255e-01 2.43137255e-01 1.17647059e-01
      1.60784319e-01 1.21568628e-01 3.68627459e-01 1.09803922e-01 0. 0.
      0. 0. 0. 3.17647070e-01 4.43137258e-01 2.74509817e-01
      1.96078435e-01 5.64705908e-01 1.37254909e-01 2.23529413e-01
      2.27450982e-01 2.35294122e-02 0. 0. 0. 2.90196091e-01
      6.00000024e-01 3.60784322e-01 4.03921574e-01 9.45098042e-01
      7.72549033e-01 1.76470593e-01 1.88235298e-01 4.50980395e-01
      4.00000006e-01 1.52941182e-01 0. 1.56862754e-02 2.98039228e-01
      5.92156887e-01 4.66666669e-01 6.43137276e-01 9.21568632e-01
      9.56862748e-01 8.27450991e-01 6.03921592e-01 6.03921592e-01
      6.35294139e-01 3.92156869e-01 0. 0. 4.03921574e-01 6.31372571e-01
      7.17647076e-01 8.78431380e-01 8.66666675e-01 9.37254906e-01
      8.86274517e-01 5.72549045e-01 6.31372571e-01 6.39215708e-01
      4.35294122e-01 2.47058824e-01 0. 4.58823532e-01 6.19607866e-01
      8.31372559e-01 9.49019611e-01 9.56862748e-01 9.64705884e-01
      9.25490201e-01 8.74509811e-01 7.13725507e-01 5.64705908e-01
      3.41176480e-01 3.92156877e-02 2.35294122e-02 4.07843143e-01
      7.13725507e-01 7.56862760e-01 9.64705884e-01 9.96078432e-01
      9.80392158e-01 9.96078432e-01 9.68627453e-01 8.66666675e-01
      5.64705908e-01 3.37254912e-01 3.92156886e-03 8.23529437e-02
      2.94117659e-01 2.07843140e-01 2.78431386e-01 1.76470593e-01
      6.07843161e-01 9.64705884e-01 9.49019611e-01 3.92156869e-01
      1.80392161e-01 1.33333340e-01 3.33333343e-01 7.45098069e-02 0.
      3.09803933e-01 4.86274511e-01 5.49019635e-01 5.45098066e-01
      5.29411793e-01 9.52941179e-01 7.37254918e-01 4.31372553e-01
      5.29411793e-01 5.21568656e-01 1.84313729e-01 0. 0. 6.78431392e-01
      1.88235298e-01 1.33333340e-01 9.92156863e-01 5.72549045e-01
      9.37254906e-01 4.74509805e-01 8.43137264e-01 1.37254909e-01
      2.62745112e-01 6.00000024e-01 0. 0. 7.76470602e-01 6.90196097e-01
      6.43137276e-01 5.80392182e-01 5.56862772e-01 8.94117653e-01
      5.49019635e-01 7.56862760e-01 5.80392182e-01 3.76470596e-01
      6.43137276e-01 0. 0. 7.56862760e-01 8.19607854e-01 7.25490212e-01
      8.82352948e-01 3.76470596e-01 8.31372559e-01 5.01960814e-01
      8.23529422e-01 8.23529422e-01 7.68627465e-01 7.37254918e-01 0. 0.
      5.96078455e-01 9.05882359e-01 9.41176474e-01 8.86274517e-01
      5.37254930e-01 8.62745106e-01 5.60784340e-01 9.05882359e-01
      9.25490201e-01 8.35294127e-01 6.39215708e-01 0. 0. 4.86274511e-01
      9.52941179e-01 9.64705884e-01 5.64705908e-01 8.31372559e-01
      9.60784316e-01 6.86274529e-01 7.76470602e-01 9.88235295e-01
      8.74509811e-01 4.70588237e-01 0. 0. 2.23529413e-01 8.39215696e-01
      6.00000024e-01 6.31372571e-01 8.58823538e-01 9.84313726e-01
      8.23529422e-01 7.41176486e-01 6.43137276e-01 9.17647064e-01
      2.86274523e-01 0. 0. 0. 7.17647076e-01 2.78431386e-01
      2.31372550e-01 5.92156887e-01 7.13725507e-01 2.23529413e-01
      2.82352954e-01 3.33333343e-01 8.31372559e-01 1.96078438e-02 0. 0.
      0. 6.39215708e-01 1.05882354e-01 2.50980407e-01 2.15686277e-01
      8.98039222e-01 3.84313732e-01 2.94117659e-01 4.94117647e-01
      7.25490212e-01 0. 0. 0. 0. 4.58823532e-01 7.76470602e-01
      6.00000024e-01 6.62745118e-01 9.72549021e-01 4.90196079e-01
      5.96078455e-01 5.49019635e-01 6.00000024e-01 0. 0. 0. 0.
      2.78431386e-01 6.19607866e-01 8.70588243e-01 8.78431380e-01
      8.35294127e-01 8.74509811e-01 8.62745106e-01 6.98039234e-01
      3.13725501e-01 0. 0. 0. 0. 0. 5.13725519e-01 8.19607854e-01
      9.29411769e-01 8.27450991e-01 8.94117653e-01 7.41176486e-01
      4.07843143e-01 0. 0. 0. 0. 0. 0. 0. 6.43137276e-01 6.82352960e-01
      8.35294127e-01 6.43137276e-01 5.25490224e-01 0. 0. 0. 0. 0. 0. 0.
      0. 3.92156886e-03 3.76470596e-01 5.01960814e-01 2.35294119e-01 0.
      0. 0. 0. 0.</_>
    <_>
      0. 0. 0. 0. 0. 0. 0. 0. 0. 0. 0. 0. 0. 0. 0. 0. 0. 0. 0. 0. 0. 0.
      0. 0. 0. 0. 0. 0. 0. 1.25490203e-01 2.62745112e-01 1.80392161e-01
      1.33333340e-01 2.74509806e-02 1.17647061e-02 0. 0. 0. 0. 0. 0.
      1.60784319e-01 1.45098045e-01 1.68627456e-01 2.03921571e-01
      2.39215687e-01 1.09803922e-01 3.52941193e-02 7.84313772e-03 0. 0.
      0. 0. 0. 2.74509806e-02 3.37254912e-01 2.27450982e-01
      1.60784319e-01 2.19607845e-01 1.37254909e-01 1.05882354e-01
      3.13725509e-02 5.49019612e-02 0. 0. 0. 2.19607845e-01
      5.49019612e-02 2.39215687e-01 3.76470596e-01 3.60784322e-01
      2.70588249e-01 2.74509817e-01 1.13725491e-01 1.52941182e-01
      3.13725501e-01 1.60784319e-01 0. 0. 9.41176489e-02 1.17647061e-02
      6.66666701e-02 1.56862751e-01 3.41176480e-01 3.49019617e-01
      3.49019617e-01 5.76470613e-01 1.68627456e-01 4.74509805e-01
      3.52941185e-01 0. 0. 4.31372561e-02 2.58823544e-01 2.15686277e-01
      3.25490206e-01 1.25490203e-01 4.31372561e-02 9.21568632e-01
      3.37254912e-01 6.35294139e-01 5.52941203e-01 2.47058824e-01 0.
      5.49019612e-02 4.62745100e-01 6.74509823e-01 8.23529422e-01
      6.39215708e-01 3.17647070e-01 1.41176477e-01 8.98039222e-01
      3.41176480e-01 7.68627465e-01 5.01960814e-01 3.17647070e-01
      1.37254909e-01 0. 5.29411793e-01 5.17647088e-01 3.72549027e-01
      4.90196079e-01 1. 9.96078432e-01 9.92156863e-01 3.96078438e-01
      4.31372553e-01 5.33333361e-01 4.82352942e-01 9.80392173e-02 0.
      4.62745100e-01 7.60784328e-01 9.17647064e-01 7.84313738e-01
      8.78431380e-01 9.72549021e-01 7.21568644e-01 9.21568632e-01
      8.54901969e-01 4.90196079e-01 4.74509805e-01 0. 0. 5.64705908e-01
      6.98039234e-01 9.56862748e-01 8.90196085e-01 7.37254918e-01
      9.64705884e-01 7.45098054e-01 8.31372559e-01 8.86274517e-01
      5.76470613e-01 4.94117647e-01 0. 0. 7.41176486e-01 3.76470596e-01
      2.43137255e-01 8.50980401e-01 7.37254918e-01 9.45098042e-01
      8.54901969e-01 8.03921580e-01 7.92156875e-01 4.66666669e-01
      5.80392182e-01 0. 0. 6.31372571e-01 8.23529422e-01 7.88235307e-01
      9.09803927e-01 7.13725507e-01 8.31372559e-01 6.50980413e-01
      8.62745106e-01 8.39215696e-01 7.92156875e-01 6.23529434e-01 0. 0.
      7.37254918e-01 9.21568632e-01 9.01960790e-01 9.09803927e-01
      6.90196097e-01 8.19607854e-01 6.39215708e-01 8.86274517e-01
      9.33333337e-01 8.90196085e-01 5.72549045e-01 0. 0. 6.90196097e-01
      9.72549021e-01 9.49019611e-01 9.21568632e-01 5.80392182e-01
      8.19607854e-01 5.45098066e-01 9.33333337e-01 9.56862748e-01
      9.21568632e-01 5.72549045e-01 0. 0. 4.94117647e-01 9.52941179e-01
      9.96078432e-01 9.17647064e-01 6.66666687e-01 1. 5.72549045e-01
      9.80392158e-01 9.60784316e-01 8.54901969e-01 4.31372553e-01 0. 0.
      1.60784319e-01 9.13725495e-01 1. 8.11764717e-01 3.29411775e-01
      6.78431392e-01 4.19607848e-01 8.70588243e-01 9.72549021e-01
      8.54901969e-01 2.47058824e-01 0. 0. 0. 8.50980401e-01
      9.09803927e-01 7.09803939e-01 6.31372571e-01 8.43137264e-01
      6.78431392e-01 7.25490212e-01 9.29411769e-01 7.13725507e-01
      1.96078438e-02 0. 0. 0. 7.72549033e-01 8.94117653e-01
      6.78431392e-01 7.25490212e-01 8.47058833e-01 7.96078444e-01
      6.50980413e-01 8.66666675e-01 6.62745118e-01 0. 0. 0. 0.
      7.21568644e-01 7.49019623e-01 6.58823550e-01 6.07843161e-01
      5.80392182e-01 5.68627477e-01 7.09803939e-01 8.27450991e-01
      6.03921592e-01 0. 0. 0. 0. 4.07843143e-01 8.70588243e-01
      6.98039234e-01 5.49019635e-01 4.70588237e-01 4.58823532e-01
      8.15686285e-01 8.39215696e-01 3.21568638e-01 0. 0. 0. 0. 0.
      7.80392170e-01 7.88235307e-01 5.41176498e-01 5.96078455e-01
      5.80392182e-01 7.92156875e-01 6.47058845e-01 0. 0. 0. 0. 0. 0.
      3.33333343e-01 6.78431392e-01 8.58823538e-01 6.58823550e-01
      7.76470602e-01 5.92156887e-01 1.13725491e-01 0. 0. 0. 0. 0. 0. 0.
      7.84313753e-02 5.17647088e-01 5.84313750e-01 2.90196091e-01 0. 0.
      0. 0. 0.</_>
    <_>
      0. 0. 0. 0. 0. 0. 0. 0. 0. 0. 0. 0. 0. 0. 0. 0. 0. 0. 0. 0. 0. 0.
      0. 0. 0. 0. 0. 0. 0. 0. 9.01960805e-02 1.88235298e-01
      1.45098045e-01 0. 0. 0. 0. 0. 0. 0. 0. 3.13725509e-02
      3.92156877e-02 1.49019614e-01 1.92156866e-01 7.45098069e-02
      7.84313753e-02 3.52941193e-02 1.96078438e-02 4.31372561e-02 0. 0.
      0. 0. 4.31372561e-02 2.62745112e-01 3.25490206e-01 3.37254912e-01
      2.82352954e-01 3.80392164e-01 5.05882382e-01 2.82352954e-01
      1.60784319e-01 3.92156886e-03 0. 0. 1.17647061e-02 8.23529437e-02
      3.88235301e-01 4.23529416e-01 8.15686285e-01 8.47058833e-01
      7.92156875e-01 6.94117665e-01 4.70588237e-01 3.37254912e-01
      3.92156877e-02 0. 0. 1.56862754e-02 2.07843140e-01 4.74509805e-01
      9.01960790e-01 9.13725495e-01 9.41176474e-01 9.13725495e-01
      8.58823538e-01 5.25490224e-01 3.45098048e-01 9.01960805e-02 0. 0.
      3.52941193e-02 2.82352954e-01 8.47058833e-01 8.78431380e-01
      9.60784316e-01 9.88235295e-01 9.09803927e-01 8.50980401e-01
      5.29411793e-01 3.52941185e-01 1.21568628e-01 3.92156877e-02 0.
      2.11764708e-01 5.33333361e-01 7.33333349e-01 8.98039222e-01
      9.72549021e-01 9.84313726e-01 9.21568632e-01 7.52941191e-01
      4.70588237e-01 3.33333343e-01 2.27450982e-01 0. 0. 2.07843140e-01
      4.98039216e-01 8.31372559e-01 9.52941179e-01 9.49019611e-01
      9.76470590e-01 9.68627453e-01 8.94117653e-01 7.45098054e-01
      3.56862754e-01 6.66666701e-02 0. 0. 2.86274523e-01 5.29411793e-01
      2.78431386e-01 7.13725507e-01 9.52941179e-01 9.84313726e-01
      8.98039222e-01 3.29411775e-01 1.41176477e-01 3.17647070e-01
      1.13725491e-01 0. 0. 3.84313732e-01 2.54901975e-01 8.27450991e-01
      4.86274511e-01 7.84313738e-01 8.94117653e-01 5.64705908e-01
      5.72549045e-01 7.45098054e-01 2.43137255e-01 2.62745112e-01 0. 0.
      4.58823532e-01 4.70588237e-01 2.62745112e-01 3.56862754e-01
      4.58823532e-01 8.82352948e-01 4.23529416e-01 3.21568638e-01
      2.50980407e-01 3.56862754e-01 3.37254912e-01 0. 0. 5.41176498e-01
      2.66666681e-01 9.37254906e-01 4.62745100e-01 4.50980395e-01
      7.80392170e-01 5.88235319e-01 5.05882382e-01 3.92156869e-01
      3.13725501e-01 4.15686280e-01 0. 0. 6.07843161e-01 5.84313750e-01
      7.21568644e-01 8.03921580e-01 5.80392182e-01 8.15686285e-01
      3.68627459e-01 8.03921580e-01 7.45098054e-01 4.86274511e-01
      4.54901963e-01 0. 0. 4.39215690e-01 8.54901969e-01 9.37254906e-01
      9.60784316e-01 5.76470613e-01 8.66666675e-01 5.60784340e-01
      9.37254906e-01 9.25490201e-01 7.64705896e-01 3.60784322e-01 0. 0.
      3.05882365e-01 8.39215696e-01 9.76470590e-01 9.76470590e-01
      7.72549033e-01 9.92156863e-01 7.33333349e-01 9.60784316e-01
      9.41176474e-01 7.76470602e-01 3.13725501e-01 0. 0. 1.21568628e-01
      8.35294127e-01 9.92156863e-01 8.70588243e-01 4.62745100e-01
      7.13725507e-01 5.01960814e-01 7.88235307e-01 9.60784316e-01
      7.49019623e-01 7.84313753e-02 0. 0. 0. 8.11764717e-01
      9.45098042e-01 8.43137264e-01 7.68627465e-01 8.62745106e-01
      6.90196097e-01 7.09803939e-01 9.01960790e-01 7.41176486e-01 0. 0.
      0. 0. 7.21568644e-01 8.23529422e-01 6.70588255e-01 5.33333361e-01
      5.72549045e-01 4.39215690e-01 6.62745118e-01 6.98039234e-01
      6.23529434e-01 0. 0. 0. 0. 5.88235319e-01 8.66666675e-01
      6.58823550e-01 7.52941191e-01 7.88235307e-01 4.82352942e-01
      7.64705896e-01 8.31372559e-01 5.52941203e-01 0. 0. 0. 0.
      3.13725501e-01 8.00000012e-01 7.60784328e-01 6.78431392e-01
      4.98039216e-01 7.09803939e-01 7.60784328e-01 7.33333349e-01
      2.82352954e-01 0. 0. 0. 0. 0. 5.13725519e-01 6.07843161e-01
      8.23529422e-01 5.92156887e-01 8.39215696e-01 5.84313750e-01
      4.19607848e-01 0. 0. 0. 0. 0. 0. 4.70588244e-02 4.74509805e-01
      7.68627465e-01 8.50980401e-01 7.49019623e-01 3.92156869e-01 0. 0.
      0. 0. 0. 0. 0. 0. 0. 1.64705887e-01 3.21568638e-01 5.09803928e-02
      0. 0. 0. 0. 0.</_>
    <_>
      0. 0. 0. 0. 0. 0. 0. 0. 0. 0. 0. 0. 0. 0. 0. 0. 0. 7.84313753e-02
      2.35294119e-01 4.70588237e-01 4.47058827e-01 1.84313729e-01
      3.92156886e-03 0. 0. 0. 0. 0. 5.09803928e-02 5.76470613e-01
      7.21568644e-01 7.76470602e-01 8.35294127e-01 8.94117653e-01
      8.66666675e-01 7.17647076e-01 2.70588249e-01 0. 0. 0. 0.
      6.66666687e-01 7.33333349e-01 6.94117665e-01 7.17647076e-01
      8.66666675e-01 8.94117653e-01 9.21568632e-01 9.05882359e-01
      8.27450991e-01 0. 0. 0. 3.41176480e-01 7.05882370e-01
      7.56862760e-01 8.15686285e-01 8.00000012e-01 8.62745106e-01
      8.82352948e-01 8.94117653e-01 9.09803927e-01 8.78431380e-01
      6.23529434e-01 0. 0. 5.33333361e-01 6.78431392e-01 6.94117665e-01
      7.76470602e-01 7.96078444e-01 8.58823538e-01 8.50980401e-01
      8.11764717e-01 8.43137264e-01 7.37254918e-01 7.37254918e-01 0. 0.
      5.17647088e-01 6.43137276e-01 6.74509823e-01 7.88235307e-01
      8.23529422e-01 8.43137264e-01 7.88235307e-01 7.52941191e-01
      7.45098054e-01 6.90196097e-01 5.76470613e-01 0. 0. 5.05882382e-01
      5.84313750e-01 6.35294139e-01 7.13725507e-01 6.82352960e-01
      7.64705896e-01 7.49019623e-01 6.07843161e-01 5.96078455e-01
      5.88235319e-01 5.41176498e-01 6.66666701e-02 0. 4.62745100e-01
      5.41176498e-01 7.01960802e-01 7.72549033e-01 8.07843149e-01
      8.03921580e-01 7.96078444e-01 8.31372559e-01 7.13725507e-01
      6.15686297e-01 5.17647088e-01 1.21568628e-01 0. 4.07843143e-01
      5.45098066e-01 7.68627465e-01 8.54901969e-01 7.60784328e-01
      8.50980401e-01 8.23529422e-01 8.54901969e-01 8.43137264e-01
      6.07843161e-01 3.05882365e-01 3.92156886e-03 0. 4.31372553e-01
      4.78431374e-01 2.78431386e-01 1.56862751e-01 4.98039216e-01
      6.98039234e-01 4.74509805e-01 1.41176477e-01 2.43137255e-01
      6.35294139e-01 3.49019617e-01 0. 0. 3.29411775e-01 2.43137255e-01
      2.07843140e-01 2.74509806e-02 1.17647059e-01 3.41176480e-01
      1.33333340e-01 2.74509806e-02 1.68627456e-01 1.41176477e-01
      4.39215690e-01 0. 0. 2.35294119e-01 1.56862754e-02 5.49019612e-02
      4.70588244e-02 3.13725501e-01 6.78431392e-01 5.49019612e-02
      1.96078438e-02 1.17647061e-02 5.49019612e-02 1.76470593e-01 0. 0.
      4.39215690e-01 2.19607845e-01 4.62745100e-01 2.11764708e-01
      4.74509805e-01 8.47058833e-01 3.60784322e-01 3.29411775e-01
      3.49019617e-01 5.88235296e-02 2.58823544e-01 0. 0. 4.94117647e-01
      5.80392182e-01 5.88235319e-01 5.84313750e-01 7.41176486e-01
      9.05882359e-01 5.45098066e-01 5.01960814e-01 5.84313750e-01
      6.35294139e-01 4.82352942e-01 0. 0. 3.37254912e-01 6.62745118e-01
      6.66666687e-01 6.82352960e-01 7.88235307e-01 8.90196085e-01
      6.35294139e-01 7.29411781e-01 6.82352960e-01 6.07843161e-01
      4.94117647e-01 0. 0. 1.45098045e-01 5.92156887e-01 7.29411781e-01
      5.76470613e-01 6.47058845e-01 8.78431380e-01 6.66666687e-01
      3.76470596e-01 7.25490212e-01 5.41176498e-01 1.96078435e-01 0. 0.
      0. 5.72549045e-01 5.13725519e-01 2.47058824e-01 7.84313772e-03
      3.01960796e-01 3.92156886e-03 1.64705887e-01 5.60784340e-01
      4.19607848e-01 7.84313772e-03 0. 0. 0. 4.98039216e-01
      2.00000003e-01 6.15686297e-01 5.25490224e-01 2.23529413e-01
      4.43137258e-01 6.86274529e-01 2.23529413e-01 3.56862754e-01 0. 0.
      0. 0. 3.60784322e-01 4.98039216e-01 7.84313753e-02 2.11764708e-01
      3.92156877e-02 1.33333340e-01 9.01960805e-02 4.11764711e-01
      2.78431386e-01 0. 0. 0. 0. 1.88235298e-01 3.76470596e-01
      1.45098045e-01 1.17647059e-01 1.25490203e-01 4.70588244e-02
      1.56862754e-02 3.56862754e-01 1.49019614e-01 0. 0. 0. 0. 0.
      9.41176489e-02 4.00000006e-01 5.09803951e-01 4.90196079e-01
      3.68627459e-01 1.41176477e-01 2.15686277e-01 0. 0. 0. 0. 0. 0.
      1.17647059e-01 3.64705890e-01 2.62745112e-01 2.74509817e-01
      2.66666681e-01 3.13725501e-01 1.72549024e-01 0. 0. 0. 0. 0. 0. 0.
      4.15686280e-01 4.15686280e-01 4.94117647e-01 4.15686280e-01
      1.33333340e-01 0. 0. 0. 0. 0. 0. 0. 0. 0. 1.84313729e-01
      1.84313729e-01 0. 0. 0. 0. 0. 0.</_>
    <_>
      0. 0. 0. 0. 0. 0. 0. 0. 0. 0. 0. 0. 0. 0. 0. 0. 0. 0. 0. 0. 0. 0.
      0. 0. 0. 0. 0. 0. 0. 0. 2.43137255e-01 2.11764708e-01
      3.29411775e-01 1.60784319e-01 8.23529437e-02 1.56862751e-01 0. 0.
      0. 0. 0. 2.35294122e-02 1.01960786e-01 6.27451017e-02
      3.17647070e-01 1.72549024e-01 1.56862751e-01 1.64705887e-01
      3.37254912e-01 2.35294119e-01 0. 0. 0. 0. 1.37254909e-01
      4.70588244e-02 2.11764708e-01 2.66666681e-01 1.52941182e-01
      2.62745112e-01 7.84313753e-02 7.84313753e-02 2.27450982e-01
      1.72549024e-01 0. 0. 7.84313772e-03 1.17647061e-02 1.33333340e-01
      1.01960786e-01 1.56862751e-01 1.01960786e-01 1.45098045e-01
      5.09803928e-02 1.76470593e-01 1.56862751e-01 3.45098048e-01 0. 0.
      1.17647059e-01 7.84313772e-03 5.09803928e-02 1.41176477e-01
      3.92156877e-02 1.92156866e-01 1.37254909e-01 1.29411772e-01
      1.45098045e-01 1.72549024e-01 3.76470596e-01 0. 0. 3.52941193e-02
      2.74509806e-02 4.70588244e-02 9.80392173e-02 1.21568628e-01
      1.72549024e-01 1.80392161e-01 1.33333340e-01 2.19607845e-01
      2.43137255e-01 3.49019617e-01 2.58823544e-01 0. 1.21568628e-01
      3.52941193e-02 1.45098045e-01 2.86274523e-01 3.80392164e-01
      3.64705890e-01 3.05882365e-01 4.00000006e-01 3.60784322e-01
      4.58823532e-01 2.50980407e-01 2.74509817e-01 0. 3.92156869e-01
      4.23529416e-01 6.58823550e-01 8.03921580e-01 7.76470602e-01
      7.29411781e-01 5.80392182e-01 7.92156875e-01 7.33333349e-01
      7.13725507e-01 3.80392164e-01 2.47058824e-01 0. 5.88235319e-01
      4.27450985e-01 5.09803951e-01 7.33333349e-01 8.00000012e-01
      8.35294127e-01 7.80392170e-01 7.80392170e-01 7.37254918e-01
      8.39215696e-01 8.35294127e-01 2.19607845e-01 0. 5.76470613e-01
      4.03921574e-01 2.70588249e-01 9.01960805e-02 3.76470596e-01
      7.25490212e-01 4.23529416e-01 8.23529437e-02 2.47058824e-01
      3.88235301e-01 8.43137264e-01 3.37254912e-01 0. 5.01960814e-01
      3.13725501e-01 2.74509806e-02 2.54901975e-01 3.37254912e-01
      8.03921580e-01 3.56862754e-01 3.56862754e-01 4.11764711e-01
      3.01960796e-01 7.88235307e-01 2.94117659e-01 0. 5.60784340e-01
      4.58823532e-01 4.15686280e-01 4.35294122e-01 5.41176498e-01
      8.90196085e-01 6.58823550e-01 4.47058827e-01 5.76470613e-01
      6.98039234e-01 8.03921580e-01 0. 0. 5.37254930e-01 7.92156875e-01
      7.13725507e-01 7.64705896e-01 6.98039234e-01 9.01960790e-01
      8.23529422e-01 8.00000012e-01 8.31372559e-01 8.98039222e-01
      8.07843149e-01 3.92156877e-02 0. 5.52941203e-01 8.19607854e-01
      8.58823538e-01 8.19607854e-01 7.25490212e-01 9.09803927e-01
      8.35294127e-01 8.82352948e-01 8.86274517e-01 8.86274517e-01
      8.19607854e-01 0. 0. 3.60784322e-01 7.76470602e-01 8.27450991e-01
      6.15686297e-01 7.17647076e-01 9.09803927e-01 8.98039222e-01
      7.64705896e-01 8.94117653e-01 8.86274517e-01 7.45098054e-01 0. 0.
      1.76470593e-01 6.23529434e-01 6.54901981e-01 6.07843161e-01
      5.56862772e-01 7.29411781e-01 4.39215690e-01 8.00000012e-01
      7.60784328e-01 8.35294127e-01 6.07843161e-01 0. 0. 0.
      5.17647088e-01 4.98039216e-01 6.23529434e-01 4.23529416e-01
      3.17647070e-01 6.19607866e-01 7.88235307e-01 7.33333349e-01
      7.25490212e-01 4.23529416e-01 0. 0. 0. 4.90196079e-01
      5.21568656e-01 5.68627477e-01 7.25490212e-01 7.68627465e-01
      8.19607854e-01 6.43137276e-01 7.17647076e-01 6.98039234e-01
      2.94117659e-01 0. 0. 5.09803928e-02 4.27450985e-01 4.78431374e-01
      4.27450985e-01 5.09803928e-02 3.01960796e-01 2.39215687e-01
      5.92156887e-01 7.21568644e-01 6.70588255e-01 1.13725491e-01 0. 0.
      0. 2.03921571e-01 5.05882382e-01 5.21568656e-01 5.45098066e-01
      6.86274529e-01 5.60784340e-01 7.17647076e-01 6.70588255e-01
      4.54901963e-01 0. 0. 0. 0. 0. 4.43137258e-01 5.72549045e-01
      3.64705890e-01 4.03921574e-01 5.49019635e-01 6.94117665e-01
      5.45098066e-01 6.27451017e-02 0. 0. 0. 0. 0. 1.56862754e-02
      5.49019635e-01 7.72549033e-01 7.88235307e-01 7.92156875e-01
      5.92156887e-01 7.45098069e-02 0. 0. 0. 0. 0. 0. 0. 0.
      1.49019614e-01 2.31372550e-01 1.60784319e-01 0. 0. 0. 0. 0.</_>
    <_>
      0. 0. 0. 0. 0. 0. 0. 0. 0. 0. 0. 0. 0. 0. 0. 0. 0. 0. 0. 0. 0. 0.
      0. 0. 0. 0. 0. 0. 0. 0. 5.88235296e-02 1.09803922e-01
      2.27450982e-01 8.62745121e-02 4.70588244e-02 0. 0. 0. 0. 0. 0. 0.
      5.49019612e-02 1.29411772e-01 1.17647059e-01 2.03921571e-01
      2.70588249e-01 2.43137255e-01 2.07843140e-01 0. 0. 0. 0. 0.
      6.66666701e-02 1.09803922e-01 1.01960786e-01 1.96078435e-01
      2.03921571e-01 2.74509817e-01 2.43137255e-01 2.54901975e-01
      2.15686277e-01 9.41176489e-02 0. 0. 0. 1.09803922e-01
      1.56862751e-01 2.62745112e-01 3.60784322e-01 3.49019617e-01
      3.41176480e-01 5.33333361e-01 3.25490206e-01 3.09803933e-01
      2.39215687e-01 0. 0. 5.88235296e-02 2.07843140e-01 3.09803933e-01
      4.74509805e-01 6.70588255e-01 6.47058845e-01 5.76470613e-01
      7.05882370e-01 5.17647088e-01 4.00000006e-01 2.94117659e-01 0. 0.
      2.74509817e-01 3.56862754e-01 5.17647088e-01 7.37254918e-01
      9.05882359e-01 8.70588243e-01 7.84313738e-01 7.52941191e-01
      8.00000012e-01 4.47058827e-01 3.25490206e-01 0. 0. 3.72549027e-01
      4.74509805e-01 5.96078455e-01 8.19607854e-01 9.25490201e-01
      9.21568632e-01 8.86274517e-01 8.94117653e-01 8.78431380e-01
      5.72549045e-01 4.62745100e-01 1.56862754e-02 0. 4.54901963e-01
      3.96078438e-01 5.76470613e-01 8.31372559e-01 8.39215696e-01
      8.70588243e-01 8.62745106e-01 8.50980401e-01 5.60784340e-01
      4.39215690e-01 5.84313750e-01 9.01960805e-02 6.00000024e-01
      4.98039216e-01 3.84313732e-01 3.88235301e-01 2.70588249e-01
      4.39215690e-01 7.84313738e-01 4.07843143e-01 3.64705890e-01
      6.07843161e-01 8.03921580e-01 6.35294139e-01 1.09803922e-01 0.
      4.31372553e-01 3.84313732e-01 6.70588255e-01 7.96078444e-01
      5.33333361e-01 8.39215696e-01 3.72549027e-01 7.88235307e-01
      7.41176486e-01 5.92156887e-01 4.54901963e-01 4.23529416e-01 0.
      5.21568656e-01 2.43137255e-01 1.64705887e-01 2.43137255e-01
      6.70588255e-01 9.25490201e-01 8.23529422e-01 5.52941203e-01
      2.19607845e-01 3.09803933e-01 8.35294127e-01 2.82352954e-01 0.
      4.50980395e-01 4.94117647e-01 3.84313732e-01 4.90196079e-01
      7.72549033e-01 9.09803927e-01 8.11764717e-01 5.01960814e-01
      4.50980395e-01 8.50980401e-01 9.17647064e-01 1.72549024e-01 0.
      5.13725519e-01 7.49019623e-01 5.41176498e-01 7.29411781e-01
      6.62745118e-01 9.13725495e-01 8.82352948e-01 8.35294127e-01
      7.84313738e-01 9.37254906e-01 8.70588243e-01 9.80392173e-02 0.
      3.92156869e-01 9.01960790e-01 8.03921580e-01 6.90196097e-01
      6.39215708e-01 9.37254906e-01 8.31372559e-01 9.21568632e-01
      8.90196085e-01 8.98039222e-01 7.29411781e-01 1.17647061e-02 0.
      1.84313729e-01 5.13725519e-01 6.47058845e-01 5.41176498e-01
      6.86274529e-01 8.00000012e-01 9.05882359e-01 8.19607854e-01
      9.17647064e-01 8.35294127e-01 5.88235319e-01 0. 0. 7.84313772e-03
      5.72549045e-01 6.86274529e-01 6.15686297e-01 1.09803922e-01
      3.05882365e-01 2.54901975e-01 8.94117653e-01 8.74509811e-01
      8.47058833e-01 4.62745100e-01 0. 0. 0. 4.82352942e-01
      6.03921592e-01 6.54901981e-01 6.03921592e-01 6.58823550e-01
      8.11764717e-01 8.98039222e-01 8.78431380e-01 7.29411781e-01
      2.43137255e-01 0. 0. 0. 4.62745100e-01 6.54901981e-01
      6.07843161e-01 4.35294122e-01 7.80392170e-01 6.07843161e-01
      7.25490212e-01 8.35294127e-01 6.74509823e-01 1.17647061e-02 0. 0.
      7.84313772e-03 3.45098048e-01 5.64705908e-01 1.25490203e-01
      1.84313729e-01 1.25490203e-01 3.29411775e-01 2.62745112e-01
      7.88235307e-01 6.58823550e-01 0. 0. 0. 0. 6.27451017e-02
      4.15686280e-01 5.33333361e-01 3.76470596e-01 5.29411793e-01
      4.39215690e-01 8.00000012e-01 7.05882370e-01 3.21568638e-01 0. 0.
      0. 0. 0. 2.94117659e-01 4.74509805e-01 3.72549027e-01
      3.56862754e-01 5.96078455e-01 7.84313738e-01 5.29411793e-01 0. 0.
      0. 0. 0. 0. 0. 3.96078438e-01 7.17647076e-01 8.43137264e-01
      8.78431380e-01 6.66666687e-01 0. 0. 0. 0. 0. 0. 0. 0. 0.
      1.05882354e-01 1.25490203e-01 1.92156866e-01 0. 0. 0. 0. 0.</_>
    <_>
      0. 0. 0. 0. 0. 0. 0. 0. 0. 0. 0. 0. 0. 0. 0. 3.92156886e-03 0. 0.
      0. 0. 0. 0. 4.31372561e-02 1.17647061e-02 0. 0. 0. 7.84313772e-03
      0. 0. 1.17647059e-01 9.80392173e-02 2.39215687e-01 1.41176477e-01
      1.05882354e-01 9.01960805e-02 3.76470596e-01 1.96078438e-02 0. 0.
      0. 5.49019612e-02 7.05882385e-02 2.27450982e-01 4.43137258e-01
      4.94117647e-01 4.54901963e-01 2.23529413e-01 9.41176489e-02
      2.50980407e-01 3.49019617e-01 0. 2.74509806e-02 0. 7.05882385e-02
      2.58823544e-01 6.03921592e-01 6.50980413e-01 7.01960802e-01
      6.54901981e-01 5.17647088e-01 1.29411772e-01 1.41176477e-01
      8.43137264e-01 8.23529437e-02 1.56862754e-02 1.96078438e-02
      1.41176477e-01 5.45098066e-01 7.68627465e-01 7.76470602e-01
      8.19607854e-01 7.72549033e-01 6.58823550e-01 5.64705908e-01
      1.52941182e-01 7.09803939e-01 3.52941185e-01 0. 5.88235296e-02
      3.33333343e-01 6.00000024e-01 7.96078444e-01 8.07843149e-01
      8.43137264e-01 8.39215696e-01 7.64705896e-01 6.43137276e-01
      3.05882365e-01 1.88235298e-01 6.35294139e-01 0. 9.41176489e-02
      4.58823532e-01 5.80392182e-01 7.64705896e-01 8.07843149e-01
      8.43137264e-01 7.68627465e-01 7.72549033e-01 7.09803939e-01
      4.35294122e-01 1.52941182e-01 6.94117665e-01 0. 2.03921571e-01
      4.27450985e-01 5.96078455e-01 8.39215696e-01 8.58823538e-01
      8.74509811e-01 8.82352948e-01 8.23529422e-01 7.05882370e-01
      5.13725519e-01 1.80392161e-01 7.13725507e-01 0. 2.74509817e-01
      4.35294122e-01 7.13725507e-01 8.43137264e-01 9.01960790e-01
      9.01960790e-01 8.86274517e-01 8.58823538e-01 7.01960802e-01
      5.37254930e-01 1.96078435e-01 5.49019612e-02 0. 3.09803933e-01
      4.35294122e-01 1.49019614e-01 1.92156866e-01 6.66666687e-01
      8.54901969e-01 3.76470596e-01 8.62745121e-02 1.80392161e-01
      2.70588249e-01 2.70588249e-01 0. 0. 3.21568638e-01 3.60784322e-01
      6.39215708e-01 3.60784322e-01 3.60784322e-01 8.39215696e-01
      4.11764711e-01 5.92156887e-01 4.66666669e-01 5.09803951e-01
      4.35294122e-01 0. 0. 3.21568638e-01 3.80392164e-01 1.05882354e-01
      7.88235307e-01 4.23529416e-01 8.50980401e-01 7.92156875e-01
      4.23529416e-01 4.07843143e-01 4.03921574e-01 4.70588237e-01 0. 0.
      3.33333343e-01 4.00000006e-01 5.37254930e-01 5.41176498e-01
      4.19607848e-01 7.45098054e-01 5.49019635e-01 5.56862772e-01
      7.64705896e-01 6.54901981e-01 5.37254930e-01 0. 0. 3.33333343e-01
      6.50980413e-01 7.37254918e-01 7.29411781e-01 4.39215690e-01
      7.45098054e-01 5.64705908e-01 8.94117653e-01 8.78431380e-01
      6.47058845e-01 4.90196079e-01 0. 0. 2.58823544e-01 5.52941203e-01
      8.11764717e-01 7.96078444e-01 4.23529416e-01 8.86274517e-01
      4.74509805e-01 8.70588243e-01 8.90196085e-01 6.90196097e-01
      4.35294122e-01 0. 0. 7.45098069e-02 5.33333361e-01 8.00000012e-01
      7.25490212e-01 4.58823532e-01 8.54901969e-01 6.15686297e-01
      8.54901969e-01 8.78431380e-01 7.17647076e-01 2.78431386e-01 0. 0.
      0. 4.74509805e-01 7.41176486e-01 5.80392182e-01 3.33333343e-01
      3.25490206e-01 4.90196079e-01 8.43137264e-01 8.31372559e-01
      6.70588255e-01 8.62745121e-02 0. 0. 0. 4.15686280e-01
      6.82352960e-01 7.72549033e-01 6.11764729e-01 8.00000012e-01
      7.21568644e-01 7.41176486e-01 7.84313738e-01 5.96078455e-01 0. 0.
      0. 0. 3.68627459e-01 6.00000024e-01 5.80392182e-01 5.29411793e-01
      5.56862772e-01 5.96078455e-01 5.88235319e-01 7.56862760e-01
      5.96078455e-01 0. 0. 0. 0. 3.13725501e-01 5.41176498e-01
      3.13725501e-01 8.58823538e-01 9.05882359e-01 8.82352948e-01
      2.70588249e-01 7.45098054e-01 4.39215690e-01 0. 0. 0. 0.
      5.49019612e-02 6.27451003e-01 6.27451003e-01 4.62745100e-01
      7.41176486e-01 5.25490224e-01 5.52941203e-01 6.78431392e-01
      1.72549024e-01 0. 0. 0. 0. 0. 3.88235301e-01 5.68627477e-01
      3.96078438e-01 5.25490224e-01 5.72549045e-01 7.64705896e-01
      4.74509805e-01 0. 0. 0. 0. 0. 0. 0. 4.23529416e-01 6.35294139e-01
      6.58823550e-01 6.39215708e-01 5.60784340e-01 0. 0. 0. 0. 0. 0. 0.
      0. 0. 2.39215687e-01 4.19607848e-01 3.64705890e-01 0. 0. 0. 0. 0.</_>
    <_>
      0. 0. 0. 0. 0. 0. 0. 0. 0. 0. 0. 0. 0. 0. 0. 0. 0. 0. 0. 0. 0. 0.
      0. 0. 0. 0. 0. 0. 0. 0. 1.29411772e-01 1.84313729e-01
      5.33333361e-01 4.94117647e-01 1.72549024e-01 0. 0. 0. 0. 0. 0. 0.
      2.19607845e-01 2.27450982e-01 5.92156887e-01 8.70588243e-01
      7.60784328e-01 3.45098048e-01 2.07843140e-01 5.49019612e-02 0. 0.
      0. 0. 1.64705887e-01 3.64705890e-01 3.76470596e-01 6.94117665e-01
      9.05882359e-01 7.45098054e-01 4.90196079e-01 2.31372550e-01
      1.96078438e-02 0. 0. 0. 1.17647059e-01 4.27450985e-01
      3.80392164e-01 3.17647070e-01 2.15686277e-01 8.66666675e-01
      9.29411769e-01 7.01960802e-01 2.94117659e-01 1.17647059e-01 0. 0.
      0. 1.64705887e-01 4.66666669e-01 3.88235301e-01 2.94117659e-01
      4.03921574e-01 7.80392170e-01 9.25490201e-01 4.78431374e-01
      3.68627459e-01 4.15686280e-01 1.52941182e-01 0. 0. 1.64705887e-01
      4.54901963e-01 1.80392161e-01 3.64705890e-01 6.78431392e-01
      8.62745106e-01 7.29411781e-01 7.09803939e-01 2.54901975e-01
      2.66666681e-01 4.86274511e-01 4.31372561e-02 4.31372561e-02
      2.70588249e-01 4.58823532e-01 5.64705908e-01 4.03921574e-01
      8.15686285e-01 8.54901969e-01 9.09803927e-01 7.25490212e-01
      7.72549033e-01 1.68627456e-01 4.19607848e-01 7.84313753e-02
      7.45098069e-02 3.41176480e-01 5.45098066e-01 3.29411775e-01
      4.31372553e-01 7.60784328e-01 7.33333349e-01 6.39215708e-01
      7.80392170e-01 5.60784340e-01 6.31372571e-01 5.25490224e-01
      9.41176489e-02 0. 3.49019617e-01 4.47058827e-01 4.74509805e-01
      2.03921571e-01 3.45098048e-01 7.76470602e-01 4.78431374e-01
      2.15686277e-01 2.78431386e-01 3.84313732e-01 5.01960814e-01
      2.74509806e-02 0. 3.49019617e-01 4.58823532e-01 1.88235298e-01
      5.68627477e-01 3.84313732e-01 8.98039222e-01 3.64705890e-01
      3.96078438e-01 2.19607845e-01 5.72549045e-01 5.13725519e-01 0. 0.
      3.33333343e-01 1.84313729e-01 1.33333340e-01 4.62745100e-01
      4.31372553e-01 9.25490201e-01 4.90196079e-01 4.86274511e-01
      1.49019614e-01 1.96078435e-01 6.11764729e-01 0. 0. 5.09803951e-01
      6.00000024e-01 7.52941191e-01 6.70588255e-01 5.29411793e-01
      8.70588243e-01 6.35294139e-01 7.76470602e-01 8.70588243e-01
      8.19607854e-01 8.11764717e-01 0. 0. 6.00000024e-01 8.43137264e-01
      8.54901969e-01 8.11764717e-01 5.13725519e-01 9.09803927e-01
      5.64705908e-01 9.13725495e-01 9.33333337e-01 9.49019611e-01
      8.15686285e-01 0. 0. 4.74509805e-01 8.62745106e-01 6.74509823e-01
      7.96078444e-01 4.43137258e-01 9.05882359e-01 5.45098066e-01
      8.82352948e-01 9.52941179e-01 9.45098042e-01 6.70588255e-01 0. 0.
      2.82352954e-01 8.15686285e-01 8.47058833e-01 7.45098054e-01
      5.80392182e-01 8.15686285e-01 6.90196097e-01 7.60784328e-01
      8.82352948e-01 9.05882359e-01 2.90196091e-01 0. 0. 3.92156877e-02
      7.56862760e-01 8.66666675e-01 4.35294122e-01 4.62745100e-01
      8.07843149e-01 4.15686280e-01 6.82352960e-01 9.41176474e-01
      8.78431380e-01 3.49019617e-01 0. 0. 0. 7.52941191e-01
      7.52941191e-01 6.54901981e-01 2.54901975e-01 2.50980407e-01
      2.82352954e-01 8.66666675e-01 9.05882359e-01 8.74509811e-01
      1.88235298e-01 0. 0. 0. 6.39215708e-01 8.15686285e-01
      7.60784328e-01 5.84313750e-01 9.01960790e-01 7.64705896e-01
      9.01960790e-01 9.21568632e-01 8.35294127e-01 0. 0. 0. 0.
      5.29411793e-01 7.01960802e-01 7.37254918e-01 7.64705896e-01
      8.35294127e-01 9.13725495e-01 9.09803927e-01 9.13725495e-01
      7.60784328e-01 0. 0. 0. 0. 2.03921571e-01 6.78431392e-01
      2.66666681e-01 2.27450982e-01 2.47058824e-01 2.31372550e-01
      2.35294119e-01 7.25490212e-01 4.39215690e-01 0. 0. 0. 0. 0.
      5.45098066e-01 6.90196097e-01 4.50980395e-01 7.21568644e-01
      6.70588255e-01 7.45098054e-01 6.03921592e-01 0. 0. 0. 0. 0. 0. 0.
      4.98039216e-01 4.62745100e-01 4.54901963e-01 4.07843143e-01
      4.86274511e-01 8.62745121e-02 0. 0. 0. 0. 0. 0. 0. 0.
      4.98039216e-01 4.11764711e-01 4.66666669e-01 0. 0. 0. 0. 0.</_>
    <_>
      0. 0. 0. 0. 0. 0. 0. 0. 0. 0. 0. 0. 0. 0. 0. 0. 0. 0. 0. 0. 0. 0.
      0. 0. 0. 0. 0. 0. 0. 0. 6.66666701e-02 6.27451017e-02
      1.05882354e-01 1.45098045e-01 0. 0. 0. 0. 0. 0. 0. 4.31372561e-02
      4.70588244e-02 1.29411772e-01 9.80392173e-02 9.41176489e-02
      5.88235296e-02 2.35294122e-02 2.03921571e-01 1.49019614e-01 0. 0.
      0. 0. 1.21568628e-01 2.35294122e-02 2.27450982e-01 2.86274523e-01
      4.27450985e-01 4.07843143e-01 3.09803933e-01 2.74509817e-01
      2.43137255e-01 0. 0. 0. 0. 1.52941182e-01 2.66666681e-01
      6.19607866e-01 6.94117665e-01 7.25490212e-01 7.76470602e-01
      7.96078444e-01 5.45098066e-01 4.31372553e-01 6.27451017e-02 0. 0.
      1.64705887e-01 1.45098045e-01 4.74509805e-01 7.64705896e-01
      8.39215696e-01 8.43137264e-01 8.74509811e-01 8.78431380e-01
      6.58823550e-01 5.76470613e-01 2.50980407e-01 0. 0. 2.35294122e-02
      3.17647070e-01 5.41176498e-01 7.49019623e-01 8.82352948e-01
      8.35294127e-01 8.98039222e-01 8.66666675e-01 7.60784328e-01
      6.07843161e-01 2.86274523e-01 1.96078438e-02 0. 4.31372561e-02
      3.52941185e-01 5.80392182e-01 7.88235307e-01 8.31372559e-01
      8.74509811e-01 8.43137264e-01 8.35294127e-01 7.80392170e-01
      6.07843161e-01 3.45098048e-01 6.66666701e-02 0. 2.39215687e-01
      3.88235301e-01 6.39215708e-01 8.58823538e-01 8.31372559e-01
      8.90196085e-01 7.96078444e-01 8.94117653e-01 6.62745118e-01
      6.50980413e-01 4.54901963e-01 3.13725509e-02 0. 3.25490206e-01
      3.01960796e-01 2.62745112e-01 5.17647088e-01 8.03921580e-01
      8.23529422e-01 6.43137276e-01 3.09803933e-01 3.21568638e-01
      4.27450985e-01 4.94117647e-01 0. 0. 3.52941185e-01 3.72549027e-01
      7.29411781e-01 4.39215690e-01 5.29411793e-01 7.37254918e-01
      6.47058845e-01 6.03921592e-01 8.27450991e-01 5.52941203e-01
      5.37254930e-01 0. 0. 4.11764711e-01 3.25490206e-01 2.58823544e-01
      3.84313732e-01 5.88235319e-01 8.23529422e-01 6.86274529e-01
      2.94117659e-01 1.96078435e-01 4.78431374e-01 5.84313750e-01 0. 0.
      4.23529416e-01 4.62745100e-01 7.13725507e-01 6.82352960e-01
      6.86274529e-01 8.54901969e-01 8.98039222e-01 7.01960802e-01
      7.56862760e-01 7.56862760e-01 6.35294139e-01 0. 0. 3.92156869e-01
      6.31372571e-01 7.64705896e-01 8.27450991e-01 6.54901981e-01
      8.23529422e-01 7.64705896e-01 8.78431380e-01 8.35294127e-01
      8.66666675e-01 6.00000024e-01 0. 0. 2.62745112e-01 5.84313750e-01
      7.96078444e-01 8.31372559e-01 5.76470613e-01 7.76470602e-01
      7.17647076e-01 8.82352948e-01 8.47058833e-01 8.00000012e-01
      5.25490224e-01 0. 0. 2.90196091e-01 5.09803951e-01 7.29411781e-01
      7.88235307e-01 4.98039216e-01 8.19607854e-01 7.29411781e-01
      8.62745106e-01 8.54901969e-01 7.13725507e-01 5.01960814e-01 0. 0.
      4.94117647e-01 4.15686280e-01 5.68627477e-01 5.37254930e-01
      4.66666669e-01 6.43137276e-01 6.70588255e-01 7.88235307e-01
      7.60784328e-01 5.88235319e-01 4.66666669e-01 3.92156886e-03 0.
      3.01960796e-01 4.03921574e-01 4.07843143e-01 6.70588255e-01
      5.64705908e-01 6.54901981e-01 7.56862760e-01 8.31372559e-01
      7.52941191e-01 4.27450985e-01 4.31372553e-01 0. 0. 1.37254909e-01
      3.49019617e-01 4.86274511e-01 5.52941203e-01 6.11764729e-01
      6.70588255e-01 8.31372559e-01 7.25490212e-01 6.50980413e-01
      4.62745100e-01 3.01960796e-01 0. 0. 2.35294122e-02 2.43137255e-01
      4.11764711e-01 2.62745112e-01 2.78431386e-01 3.13725501e-01
      3.01960796e-01 4.00000006e-01 6.07843161e-01 4.54901963e-01
      1.13725491e-01 0. 0. 0. 8.23529437e-02 3.21568638e-01
      5.41176498e-01 3.21568638e-01 5.88235319e-01 4.27450985e-01
      6.70588255e-01 4.94117647e-01 3.25490206e-01 0. 0. 0. 0. 0.
      2.27450982e-01 4.15686280e-01 4.39215690e-01 2.90196091e-01
      6.23529434e-01 6.15686297e-01 3.56862754e-01 0. 0. 0. 0. 0. 0. 0.
      2.54901975e-01 5.29411793e-01 7.13725507e-01 7.09803939e-01
      4.47058827e-01 0. 0. 0. 0. 0. 0. 0. 0. 0. 0. 1.88235298e-01
      2.74509806e-02 0. 0. 0. 0. 0.</_>
    <_>
      0. 0. 0. 0. 0. 0. 0. 0. 0. 0. 0. 0. 0. 0. 0. 0. 0. 0. 0. 0. 0. 0.
      0. 0. 0. 0. 0. 0. 0. 0. 1.21568628e-01 1.72549024e-01
      1.68627456e-01 1.96078435e-01 1.80392161e-01 1.56862754e-02 0. 0.
      0. 0. 0. 1.64705887e-01 5.29411793e-01 7.21568644e-01
      7.29411781e-01 8.00000012e-01 7.60784328e-01 6.86274529e-01
      5.17647088e-01 2.19607845e-01 0. 0. 0. 0. 3.96078438e-01
      7.01960802e-01 8.00000012e-01 8.27450991e-01 8.78431380e-01
      8.54901969e-01 8.19607854e-01 7.29411781e-01 5.92156887e-01
      7.45098069e-02 0. 0. 2.00000003e-01 4.43137258e-01 6.98039234e-01
      9.09803927e-01 8.90196085e-01 9.25490201e-01 9.64705884e-01
      9.68627453e-01 7.25490212e-01 5.80392182e-01 2.23529413e-01 0. 0.
      2.27450982e-01 4.86274511e-01 6.66666687e-01 8.90196085e-01
      9.21568632e-01 8.98039222e-01 9.05882359e-01 9.21568632e-01
      8.15686285e-01 6.54901981e-01 3.09803933e-01 0. 0. 2.31372550e-01
      5.49019635e-01 7.64705896e-01 8.66666675e-01 9.09803927e-01
      9.01960790e-01 9.13725495e-01 8.66666675e-01 8.27450991e-01
      7.29411781e-01 4.19607848e-01 0. 0. 2.31372550e-01 5.21568656e-01
      7.60784328e-01 8.94117653e-01 8.90196085e-01 9.52941179e-01
      9.25490201e-01 9.37254906e-01 8.58823538e-01 7.25490212e-01
      4.58823532e-01 3.92156886e-03 0. 2.78431386e-01 3.68627459e-01
      4.82352942e-01 8.74509811e-01 9.41176474e-01 9.60784316e-01
      9.29411769e-01 9.25490201e-01 6.15686297e-01 6.94117665e-01
      5.29411793e-01 0. 0. 2.43137255e-01 2.23529413e-01 1.33333340e-01
      1.37254909e-01 3.76470596e-01 9.17647064e-01 4.94117647e-01
      1.84313729e-01 1.68627456e-01 2.62745112e-01 4.00000006e-01 0. 0.
      3.17647070e-01 4.15686280e-01 3.88235301e-01 2.82352954e-01
      2.70588249e-01 9.29411769e-01 2.78431386e-01 4.00000006e-01
      3.96078438e-01 5.45098066e-01 4.78431374e-01 0. 0. 3.09803933e-01
      1.96078435e-01 1.60784319e-01 4.66666669e-01 2.62745112e-01
      9.01960790e-01 3.49019617e-01 7.80392170e-01 2.07843140e-01
      2.15686277e-01 5.37254930e-01 0. 0. 4.82352942e-01 5.09803951e-01
      5.49019635e-01 6.00000024e-01 4.50980395e-01 8.70588243e-01
      4.98039216e-01 6.07843161e-01 6.15686297e-01 7.33333349e-01
      7.49019623e-01 2.47058824e-01 0. 5.13725519e-01 7.96078444e-01
      7.88235307e-01 7.72549033e-01 5.13725519e-01 8.70588243e-01
      6.43137276e-01 7.88235307e-01 8.82352948e-01 8.54901969e-01
      7.45098054e-01 1.33333340e-01 0. 3.41176480e-01 8.15686285e-01
      7.60784328e-01 8.27450991e-01 4.43137258e-01 8.50980401e-01
      5.33333361e-01 8.39215696e-01 8.70588243e-01 9.05882359e-01
      7.21568644e-01 3.52941193e-02 0. 1.41176477e-01 7.13725507e-01
      8.23529422e-01 7.88235307e-01 5.76470613e-01 9.21568632e-01
      6.43137276e-01 8.27450991e-01 9.01960790e-01 8.58823538e-01
      6.07843161e-01 0. 0. 0. 6.07843161e-01 6.58823550e-01
      4.70588237e-01 2.47058824e-01 7.25490212e-01 2.07843140e-01
      4.86274511e-01 8.19607854e-01 8.07843149e-01 3.96078438e-01 0. 0.
      0. 5.84313750e-01 6.39215708e-01 4.74509805e-01 3.41176480e-01
      2.58823544e-01 3.60784322e-01 6.62745118e-01 8.23529422e-01
      6.98039234e-01 1.52941182e-01 0. 0. 0. 4.78431374e-01
      5.41176498e-01 4.70588237e-01 3.84313732e-01 5.88235319e-01
      6.27451003e-01 5.88235319e-01 7.76470602e-01 6.90196097e-01 0. 0.
      0. 0. 5.72549045e-01 4.82352942e-01 3.64705890e-01 2.98039228e-01
      7.13725507e-01 6.27451003e-01 4.35294122e-01 5.56862772e-01
      7.17647076e-01 0. 0. 0. 0. 2.35294119e-01 5.21568656e-01
      2.19607845e-01 3.05882365e-01 2.31372550e-01 3.37254912e-01
      2.47058824e-01 5.13725519e-01 4.00000006e-01 0. 0. 0. 0. 0.
      5.29411793e-01 5.25490224e-01 3.49019617e-01 6.00000024e-01
      5.76470613e-01 6.66666687e-01 6.82352960e-01 0. 0. 0. 0. 0. 0.
      3.92156877e-02 6.00000024e-01 5.41176498e-01 3.68627459e-01
      5.72549045e-01 6.50980413e-01 4.70588244e-02 0. 0. 0. 0. 0. 0. 0.
      0. 2.00000003e-01 5.88235296e-02 3.52941185e-01 7.84313772e-03 0.
      0. 0. 0.</_>
    <_>
      0. 0. 0. 0. 0. 0. 0. 0. 0. 0. 0. 0. 0. 0. 0. 0. 0. 0. 0. 0. 0. 0.
      0. 0. 0. 0. 0. 0. 0. 0. 6.27451017e-02 7.84313753e-02
      8.23529437e-02 6.27451017e-02 2.35294122e-02 0. 0. 0. 0. 0. 0. 0.
      1.01960786e-01 2.94117659e-01 5.45098066e-01 2.94117659e-01
      2.23529413e-01 3.92156877e-02 9.80392173e-02 2.35294122e-02
      2.50980407e-01 0. 0. 0. 1.33333340e-01 5.05882382e-01
      7.56862760e-01 8.07843149e-01 7.84313738e-01 7.49019623e-01
      4.35294122e-01 8.23529437e-02 4.70588244e-02 0. 7.45098069e-02 0.
      9.41176489e-02 4.58823532e-01 6.50980413e-01 8.19607854e-01
      8.31372559e-01 8.47058833e-01 8.43137264e-01 7.52941191e-01
      3.76470596e-01 1.96078438e-02 1.21568628e-01 3.29411775e-01 0.
      2.35294119e-01 5.88235319e-01 7.45098054e-01 8.19607854e-01
      8.62745106e-01 8.70588243e-01 8.70588243e-01 8.07843149e-01
      6.39215708e-01 2.00000003e-01 1.05882354e-01 5.68627477e-01 0.
      2.94117659e-01 6.62745118e-01 7.29411781e-01 8.35294127e-01
      7.92156875e-01 8.39215696e-01 8.47058833e-01 7.68627465e-01
      6.98039234e-01 3.84313732e-01 1.29411772e-01 7.17647076e-01 0.
      3.88235301e-01 6.03921592e-01 7.56862760e-01 8.15686285e-01
      8.35294127e-01 8.70588243e-01 8.50980401e-01 8.07843149e-01
      7.29411781e-01 5.05882382e-01 1.60784319e-01 8.23529422e-01 0.
      3.17647070e-01 6.35294139e-01 7.84313738e-01 8.27450991e-01
      8.39215696e-01 8.39215696e-01 8.43137264e-01 8.43137264e-01
      7.41176486e-01 5.29411793e-01 1.56862751e-01 8.03921580e-01 0.
      3.05882365e-01 2.19607845e-01 1.33333340e-01 1.52941182e-01
      7.01960802e-01 8.74509811e-01 6.66666687e-01 1.88235298e-01
      1.84313729e-01 2.11764708e-01 1.80392161e-01 7.09803939e-01 0.
      2.00000003e-01 4.07843143e-01 5.60784340e-01 2.31372550e-01
      4.23529416e-01 8.66666675e-01 1.88235298e-01 3.13725501e-01
      5.45098066e-01 3.13725501e-01 2.47058824e-01 5.64705908e-01 0.
      2.82352954e-01 1.76470593e-01 1.96078438e-02 2.98039228e-01
      3.21568638e-01 8.15686285e-01 2.11764708e-01 7.84313753e-02
      1.33333340e-01 2.39215687e-01 6.19607866e-01 4.31372553e-01 0.
      2.86274523e-01 1.52941182e-01 3.68627459e-01 4.11764711e-01
      4.23529416e-01 7.76470602e-01 3.41176480e-01 4.00000006e-01
      2.62745112e-01 2.15686277e-01 5.41176498e-01 2.11764708e-01 0.
      4.15686280e-01 5.96078455e-01 7.29411781e-01 5.72549045e-01
      4.31372553e-01 6.39215708e-01 3.96078438e-01 6.07843161e-01
      6.74509823e-01 6.11764729e-01 5.13725519e-01 0. 0. 4.50980395e-01
      7.13725507e-01 8.03921580e-01 6.86274529e-01 3.64705890e-01
      7.49019623e-01 4.62745100e-01 6.35294139e-01 7.68627465e-01
      6.54901981e-01 4.11764711e-01 0. 0. 2.19607845e-01 6.86274529e-01
      7.45098054e-01 7.05882370e-01 3.56862754e-01 5.25490224e-01
      3.25490206e-01 6.27451003e-01 6.98039234e-01 5.80392182e-01
      3.01960796e-01 0. 0. 7.84313772e-03 5.68627477e-01 7.01960802e-01
      7.01960802e-01 3.17647070e-01 2.54901975e-01 1.96078435e-01
      6.54901981e-01 6.27451003e-01 5.72549045e-01 2.35294119e-01 0. 0.
      0. 5.45098066e-01 6.78431392e-01 7.52941191e-01 5.64705908e-01
      4.47058827e-01 3.05882365e-01 6.86274529e-01 6.54901981e-01
      5.17647088e-01 1.80392161e-01 0. 0. 0. 5.05882382e-01
      5.72549045e-01 6.74509823e-01 6.47058845e-01 7.68627465e-01
      6.23529434e-01 7.01960802e-01 5.88235319e-01 4.50980395e-01 0. 0.
      0. 0. 3.33333343e-01 5.05882382e-01 5.37254930e-01 2.39215687e-01
      4.78431374e-01 3.09803933e-01 2.11764708e-01 5.60784340e-01
      3.41176480e-01 0. 0. 0. 0. 4.31372561e-02 5.09803951e-01
      7.37254918e-01 4.27450985e-01 2.39215687e-01 3.56862754e-01
      5.92156887e-01 5.33333361e-01 9.80392173e-02 0. 0. 0. 0. 0.
      3.37254912e-01 5.88235319e-01 7.45098054e-01 7.72549033e-01
      7.76470602e-01 6.23529434e-01 3.60784322e-01 0. 0. 0. 0. 0. 0. 0.
      4.70588237e-01 6.23529434e-01 8.03921580e-01 6.82352960e-01
      4.66666669e-01 0. 0. 0. 0. 0. 0. 0. 0. 0. 1.72549024e-01
      3.96078438e-01 2.19607845e-01 0. 0. 0. 0. 0.</_>
    <_>
      0. 0. 0. 0. 0. 0. 0. 0. 0. 0. 0. 0. 0. 0. 0. 0. 0. 0. 0. 0. 0. 0.
      0. 0. 0. 0. 0. 0. 0. 0. 8.62745121e-02 1.96078435e-01
      2.19607845e-01 9.01960805e-02 1.01960786e-01 0. 0. 0. 0. 0. 0. 0.
      8.23529437e-02 2.50980407e-01 1.96078435e-01 8.62745121e-02
      1.49019614e-01 3.01960796e-01 3.41176480e-01 8.62745121e-02 0. 0.
      0. 0. 1.01960786e-01 3.33333343e-01 5.25490224e-01 5.09803951e-01
      3.37254912e-01 3.96078438e-01 7.72549033e-01 5.88235319e-01
      4.23529416e-01 3.13725509e-02 0. 0. 2.50980407e-01 6.19607866e-01
      8.70588243e-01 9.09803927e-01 8.94117653e-01 8.62745106e-01
      8.54901969e-01 9.09803927e-01 8.19607854e-01 7.96078444e-01
      2.19607845e-01 0. 0. 6.19607866e-01 8.31372559e-01 8.78431380e-01
      9.13725495e-01 9.09803927e-01 8.86274517e-01 8.82352948e-01
      8.62745106e-01 7.88235307e-01 8.31372559e-01 3.80392164e-01 0. 0.
      5.88235319e-01 7.68627465e-01 8.03921580e-01 8.50980401e-01
      8.78431380e-01 9.01960790e-01 8.94117653e-01 8.39215696e-01
      7.49019623e-01 7.52941191e-01 3.76470596e-01 0. 0. 5.45098066e-01
      7.52941191e-01 8.43137264e-01 8.86274517e-01 8.90196085e-01
      8.90196085e-01 9.05882359e-01 8.70588243e-01 7.09803939e-01
      6.70588255e-01 3.88235301e-01 0. 0. 6.00000024e-01 7.60784328e-01
      8.15686285e-01 8.47058833e-01 8.94117653e-01 8.47058833e-01
      8.47058833e-01 7.37254918e-01 6.86274529e-01 6.50980413e-01
      4.66666669e-01 0. 0. 6.27451003e-01 6.94117665e-01 6.82352960e-01
      6.62745118e-01 6.27451003e-01 7.17647076e-01 5.72549045e-01
      3.64705890e-01 3.80392164e-01 5.88235319e-01 5.80392182e-01 0. 0.
      6.19607866e-01 1.25490203e-01 1.56862751e-01 1.29411772e-01
      3.49019617e-01 5.01960814e-01 3.09803933e-01 9.01960805e-02
      1.84313729e-01 1.60784319e-01 5.17647088e-01 0. 0. 6.58823550e-01
      2.43137255e-01 5.49019612e-02 3.92156877e-02 2.39215687e-01
      6.70588255e-01 1.21568628e-01 3.13725509e-02 3.13725509e-02
      2.00000003e-01 4.11764711e-01 0. 0. 6.82352960e-01 7.96078444e-01
      5.92156887e-01 5.13725519e-01 7.60784328e-01 8.15686285e-01
      4.39215690e-01 3.88235301e-01 3.37254912e-01 3.64705890e-01
      5.72549045e-01 0. 0. 6.58823550e-01 8.11764717e-01 7.64705896e-01
      8.19607854e-01 7.52941191e-01 6.90196097e-01 4.78431374e-01
      6.98039234e-01 6.39215708e-01 8.00000012e-01 6.31372571e-01
      5.88235296e-02 0. 4.62745100e-01 7.96078444e-01 7.92156875e-01
      7.80392170e-01 7.17647076e-01 7.96078444e-01 3.76470596e-01
      7.52941191e-01 7.60784328e-01 7.09803939e-01 5.17647088e-01 0. 0.
      3.13725501e-01 7.21568644e-01 8.07843149e-01 5.25490224e-01
      6.82352960e-01 6.82352960e-01 5.37254930e-01 6.98039234e-01
      6.58823550e-01 5.84313750e-01 2.98039228e-01 0. 0. 1.37254909e-01
      6.94117665e-01 6.74509823e-01 6.07843161e-01 1.96078438e-02
      2.58823544e-01 2.35294122e-02 5.49019635e-01 5.33333361e-01
      4.74509805e-01 1.17647059e-01 0. 0. 0. 5.60784340e-01
      5.72549045e-01 6.35294139e-01 5.25490224e-01 2.31372550e-01
      3.29411775e-01 4.11764711e-01 4.66666669e-01 3.76470596e-01 0. 0.
      0. 0. 4.86274511e-01 6.19607866e-01 4.74509805e-01 6.90196097e-01
      6.50980413e-01 3.92156869e-01 1.72549024e-01 3.72549027e-01
      3.56862754e-01 0. 0. 0. 0. 3.96078438e-01 5.92156887e-01
      1.60784319e-01 0. 3.92156886e-03 2.78431386e-01 3.41176480e-01
      4.54901963e-01 2.47058824e-01 0. 0. 0. 0. 1.01960786e-01
      4.82352942e-01 6.74509823e-01 5.17647088e-01 5.09803951e-01
      2.86274523e-01 5.68627477e-01 4.07843143e-01 3.92156886e-03 0. 0.
      0. 0. 0. 3.29411775e-01 6.00000024e-01 4.35294122e-01
      3.60784322e-01 4.39215690e-01 5.52941203e-01 2.39215687e-01 0. 0.
      0. 0. 0. 0. 0. 4.86274511e-01 7.64705896e-01 7.45098054e-01
      7.33333349e-01 3.96078438e-01 0. 0. 0. 0. 0. 0. 0. 0. 0.
      1.84313729e-01 1.05882354e-01 0. 0. 0. 0. 0. 0.</_>
    <_>
      0. 0. 0. 0. 0. 0. 0. 0. 0. 0. 0. 0. 0. 0. 0. 0. 0. 0. 0. 0. 0. 0.
      0. 0. 0. 0. 0. 0. 0. 0. 1.21568628e-01 1.96078438e-02
      3.92156877e-02 1.96078435e-01 2.74509817e-01 1.88235298e-01 0. 0.
      0. 0. 0. 1.21568628e-01 1.21568628e-01 2.23529413e-01
      1.80392161e-01 3.52941185e-01 3.33333343e-01 2.58823544e-01
      2.90196091e-01 2.19607845e-01 0. 0. 0. 0. 1.21568628e-01
      5.49019612e-02 1.56862751e-01 2.39215687e-01 3.09803933e-01
      3.60784322e-01 3.05882365e-01 2.82352954e-01 1.33333340e-01
      3.52941193e-02 0. 0. 1.37254909e-01 1.41176477e-01 1.45098045e-01
      2.39215687e-01 3.25490206e-01 2.94117659e-01 2.50980407e-01
      3.33333343e-01 1.25490203e-01 1.92156866e-01 1.33333340e-01 0. 0.
      2.98039228e-01 3.52941185e-01 2.66666681e-01 9.41176489e-02
      2.58823544e-01 2.74509817e-01 1.96078435e-01 2.03921571e-01
      2.00000003e-01 1.92156866e-01 8.62745121e-02 0. 0. 4.66666669e-01
      4.23529416e-01 2.00000003e-01 2.47058824e-01 5.49019612e-02
      1.88235298e-01 1.05882354e-01 2.35294122e-02 6.66666701e-02
      9.41176489e-02 3.13725509e-02 0. 0. 5.68627477e-01 5.13725519e-01
      2.98039228e-01 3.21568638e-01 4.90196079e-01 2.31372550e-01
      3.68627459e-01 2.74509806e-02 1.96078438e-02 3.13725509e-02
      9.80392173e-02 0. 0. 6.47058845e-01 4.98039216e-01 4.07843143e-01
      3.80392164e-01 9.05882359e-01 6.03921592e-01 6.00000024e-01
      7.84313753e-02 1.56862754e-02 3.92156877e-02 2.11764708e-01 0.
      6.27451017e-02 6.94117665e-01 4.00000006e-01 4.62745100e-01
      2.43137255e-01 4.98039216e-01 5.76470613e-01 4.23529416e-01
      3.68627459e-01 3.80392164e-01 2.31372550e-01 4.47058827e-01 0. 0.
      7.09803939e-01 9.21568632e-01 8.31372559e-01 5.25490224e-01
      5.01960814e-01 5.96078455e-01 4.39215690e-01 8.19607854e-01
      5.88235319e-01 8.03921580e-01 5.17647088e-01 4.31372561e-02
      1.96078438e-02 9.01960790e-01 5.84313750e-01 1.45098045e-01
      2.19607845e-01 7.05882370e-01 9.21568632e-01 5.21568656e-01
      3.72549027e-01 2.98039228e-01 4.23529416e-01 9.80392158e-01
      2.11764708e-01 0. 7.96078444e-01 9.60784316e-01 6.07843161e-01
      6.78431392e-01 8.03921580e-01 7.37254918e-01 7.01960802e-01
      8.54901969e-01 8.47058833e-01 9.45098042e-01 9.13725495e-01
      1.41176477e-01 0. 8.35294127e-01 9.17647064e-01 9.41176474e-01
      8.94117653e-01 4.74509805e-01 9.64705884e-01 5.21568656e-01
      8.98039222e-01 9.13725495e-01 8.15686285e-01 5.17647088e-01
      4.70588244e-02 0. 4.98039216e-01 8.74509811e-01 9.52941179e-01
      6.98039234e-01 7.45098054e-01 9.68627453e-01 4.31372553e-01
      8.62745106e-01 8.74509811e-01 7.92156875e-01 5.41176498e-01 0. 0.
      6.47058845e-01 9.76470590e-01 7.52941191e-01 7.49019623e-01
      9.29411769e-01 9.72549021e-01 8.90196085e-01 6.66666687e-01
      8.66666675e-01 6.00000024e-01 3.49019617e-01 0. 0. 3.88235301e-01
      8.50980401e-01 7.92156875e-01 6.58823550e-01 2.74509806e-02
      4.94117647e-01 2.74509817e-01 7.52941191e-01 9.45098042e-01
      7.84313738e-01 2.82352954e-01 0. 0. 1.17647059e-01 7.49019623e-01
      7.29411781e-01 9.45098042e-01 7.25490212e-01 4.66666669e-01
      4.90196079e-01 8.50980401e-01 7.29411781e-01 6.27451003e-01
      9.41176489e-02 0. 0. 0. 7.21568644e-01 8.94117653e-01
      8.58823538e-01 8.90196085e-01 9.09803927e-01 7.96078444e-01
      6.54901981e-01 6.43137276e-01 6.00000024e-01 0. 0. 0. 0.
      6.74509823e-01 7.64705896e-01 1.37254909e-01 3.29411775e-01
      4.15686280e-01 3.52941185e-01 3.72549027e-01 5.52941203e-01
      5.05882382e-01 0. 0. 0. 0. 4.58823532e-01 7.37254918e-01
      9.17647064e-01 8.19607854e-01 6.62745118e-01 6.54901981e-01
      6.70588255e-01 6.86274529e-01 2.43137255e-01 0. 0. 0. 0. 0.
      6.35294139e-01 8.27450991e-01 8.00000012e-01 7.37254918e-01
      6.39215708e-01 6.31372571e-01 4.54901963e-01 0. 0. 0. 0. 0. 0.
      2.58823544e-01 7.29411781e-01 8.66666675e-01 9.13725495e-01
      6.78431392e-01 4.43137258e-01 0. 0. 0. 0. 0. 0. 0. 0.
      5.09803928e-02 4.43137258e-01 4.50980395e-01 2.27450982e-01 0. 0.
      0. 0. 0.</_>
    <_>
      0. 0. 0. 0. 0. 0. 0. 0. 0. 0. 0. 0. 0. 0. 0. 0. 0. 0. 0. 0. 0. 0.
      0. 0. 0. 0. 0. 7.84313772e-03 0. 0. 8.62745121e-02 6.66666701e-02
      9.01960805e-02 7.84313753e-02 5.09803928e-02 2.35294122e-02 0. 0.
      0. 0. 0. 0. 1.64705887e-01 1.52941182e-01 9.01960805e-02
      1.21568628e-01 2.62745112e-01 3.29411775e-01 3.92156869e-01
      1.96078435e-01 0. 0. 2.74509806e-02 0. 9.01960805e-02
      2.35294122e-02 9.01960805e-02 5.09803928e-02 2.07843140e-01
      4.39215690e-01 5.80392182e-01 6.11764729e-01 5.01960814e-01
      1.05882354e-01 0. 4.70588244e-02 1.29411772e-01 9.80392173e-02
      1.01960786e-01 8.62745121e-02 1.37254909e-01 2.82352954e-01
      7.25490212e-01 8.00000012e-01 7.45098054e-01 6.07843161e-01
      4.54901963e-01 0. 0. 1.96078438e-02 1.17647061e-02 2.00000003e-01
      3.13725501e-01 5.13725519e-01 7.88235307e-01 8.39215696e-01
      7.92156875e-01 7.68627465e-01 6.50980413e-01 5.09803951e-01 0.
      5.45098066e-01 3.92156877e-02 3.05882365e-01 4.62745100e-01
      6.15686297e-01 6.70588255e-01 8.27450991e-01 8.54901969e-01
      8.39215696e-01 8.11764717e-01 7.17647076e-01 5.33333361e-01
      3.92156886e-03 2.58823544e-01 7.05882385e-02 4.15686280e-01
      5.17647088e-01 7.05882370e-01 8.27450991e-01 8.27450991e-01
      8.43137264e-01 8.27450991e-01 7.76470602e-01 7.84313738e-01
      6.00000024e-01 3.92156886e-03 4.07843143e-01 1.05882354e-01
      4.27450985e-01 6.31372571e-01 7.52941191e-01 8.35294127e-01
      8.54901969e-01 8.23529422e-01 8.07843149e-01 7.80392170e-01
      7.72549033e-01 6.78431392e-01 2.74509806e-02 5.80392182e-01
      2.15686277e-01 3.80392164e-01 2.11764708e-01 2.50980407e-01
      5.49019635e-01 6.07843161e-01 2.54901975e-01 1.25490203e-01
      2.27450982e-01 3.05882365e-01 7.37254918e-01 6.27451017e-02
      5.21568656e-01 2.43137255e-01 2.39215687e-01 2.78431386e-01
      2.74509817e-01 2.50980407e-01 6.15686297e-01 2.90196091e-01
      4.62745100e-01 5.72549045e-01 3.45098048e-01 7.13725507e-01 0.
      3.56862754e-01 2.00000003e-01 2.54901975e-01 2.62745112e-01
      3.21568638e-01 2.54901975e-01 6.94117665e-01 2.58823544e-01
      2.00000003e-01 2.03921571e-01 3.45098048e-01 6.94117665e-01
      7.84313772e-03 2.07843140e-01 6.90196097e-01 3.41176480e-01
      2.58823544e-01 2.74509817e-01 3.80392164e-01 6.94117665e-01
      5.05882382e-01 2.90196091e-01 3.17647070e-01 5.37254930e-01
      7.68627465e-01 0. 9.80392173e-02 9.13725495e-01 3.37254912e-01
      4.15686280e-01 4.07843143e-01 2.19607845e-01 8.47058833e-01
      6.00000024e-01 5.64705908e-01 5.56862772e-01 7.41176486e-01
      7.33333349e-01 0. 3.13725509e-02 8.58823538e-01 3.52941185e-01
      4.50980395e-01 5.05882382e-01 4.35294122e-01 8.07843149e-01
      2.54901975e-01 5.96078455e-01 6.47058845e-01 3.01960796e-01
      6.58823550e-01 0. 7.84313772e-03 7.25490212e-01 3.92156869e-01
      2.27450982e-01 3.17647070e-01 5.80392182e-01 7.37254918e-01
      8.47058833e-01 4.19607848e-01 4.07843143e-01 7.45098054e-01
      5.45098066e-01 0. 0. 5.45098066e-01 4.66666669e-01 6.39215708e-01
      5.52941203e-01 1.05882354e-01 2.54901975e-01 2.23529413e-01
      8.31372559e-01 8.43137264e-01 8.00000012e-01 3.88235301e-01 0. 0.
      3.45098048e-01 4.47058827e-01 5.60784340e-01 5.72549045e-01
      4.86274511e-01 6.39215708e-01 6.47058845e-01 8.31372559e-01
      8.27450991e-01 7.52941191e-01 1.96078435e-01 0. 0. 1.80392161e-01
      4.15686280e-01 4.98039216e-01 3.52941185e-01 3.68627459e-01
      3.84313732e-01 4.74509805e-01 6.39215708e-01 7.45098054e-01
      7.01960802e-01 1.17647061e-02 0. 0. 6.66666701e-02 3.64705890e-01
      4.70588237e-01 3.13725501e-01 4.19607848e-01 5.52941203e-01
      6.00000024e-01 5.17647088e-01 7.09803939e-01 6.11764729e-01 0. 0.
      0. 7.84313772e-03 6.94117665e-01 3.84313732e-01 3.80392164e-01
      3.13725501e-01 3.37254912e-01 4.82352942e-01 6.27451003e-01
      5.88235319e-01 2.90196091e-01 0. 0. 0. 0. 2.86274523e-01
      3.33333343e-01 3.80392164e-01 4.00000006e-01 5.37254930e-01
      6.27451003e-01 5.88235319e-01 5.09803951e-01 0. 0. 0. 0. 0.
      2.74509806e-02 0. 2.78431386e-01 4.43137258e-01 5.01960814e-01
      6.11764729e-01 5.33333361e-01 0. 0. 0. 0. 0. 0. 0. 0. 0. 0. 0. 0.
      0. 0. 0. 0. 0.</_>
    <_>
      0. 0. 0. 0. 0. 0. 0. 0. 0. 0. 0. 0. 0. 0. 0. 0. 0. 0. 0. 0. 0. 0.
      0. 0. 0. 0. 0. 0. 0. 0. 1.09803922e-01 1.17647061e-02
      1.33333340e-01 4.31372561e-02 8.23529437e-02 0. 0. 0. 0. 0. 0. 0.
      2.50980407e-01 1.88235298e-01 2.27450982e-01 9.80392173e-02
      9.80392173e-02 1.80392161e-01 7.45098069e-02 4.31372561e-02 0. 0.
      0. 0. 2.07843140e-01 5.49019635e-01 4.86274511e-01 2.78431386e-01
      2.43137255e-01 1.76470593e-01 1.37254909e-01 7.45098069e-02
      1.21568628e-01 1.01960786e-01 8.23529437e-02 0. 0. 3.56862754e-01
      5.56862772e-01 7.13725507e-01 5.09803951e-01 3.52941185e-01
      3.05882365e-01 2.31372550e-01 1.84313729e-01 2.35294122e-02
      1.21568628e-01 2.90196091e-01 0. 7.45098069e-02 4.50980395e-01
      5.49019635e-01 7.72549033e-01 6.50980413e-01 5.17647088e-01
      5.56862772e-01 2.54901975e-01 1.25490203e-01 3.52941193e-02
      1.01960786e-01 5.45098066e-01 0. 2.15686277e-01 4.82352942e-01
      6.15686297e-01 6.94117665e-01 7.29411781e-01 6.07843161e-01
      5.72549045e-01 5.17647088e-01 3.01960796e-01 1.41176477e-01
      1.17647059e-01 7.21568644e-01 0. 2.70588249e-01 4.98039216e-01
      6.74509823e-01 8.31372559e-01 8.11764717e-01 7.21568644e-01
      7.56862760e-01 7.33333349e-01 5.52941203e-01 3.37254912e-01
      1.33333340e-01 8.39215696e-01 0. 3.56862754e-01 5.09803951e-01
      6.62745118e-01 7.21568644e-01 7.96078444e-01 8.23529422e-01
      8.03921580e-01 7.56862760e-01 6.86274529e-01 5.17647088e-01
      1.72549024e-01 8.07843149e-01 0. 4.39215690e-01 2.43137255e-01
      2.66666681e-01 2.00000003e-01 4.94117647e-01 7.01960802e-01
      4.39215690e-01 2.35294119e-01 3.21568638e-01 3.45098048e-01
      3.21568638e-01 6.15686297e-01 0. 4.58823532e-01 4.00000006e-01
      7.84313738e-01 6.35294139e-01 4.47058827e-01 6.43137276e-01
      4.43137258e-01 6.78431392e-01 7.76470602e-01 5.21568656e-01
      7.25490212e-01 4.94117647e-01 0. 4.66666669e-01 2.11764708e-01
      3.52941193e-02 2.39215687e-01 4.23529416e-01 8.23529422e-01
      5.45098066e-01 1.68627456e-01 2.27450982e-01 5.52941203e-01
      7.56862760e-01 3.60784322e-01 0. 6.47058845e-01 5.56862772e-01
      4.43137258e-01 6.31372571e-01 6.90196097e-01 8.66666675e-01
      8.47058833e-01 6.58823550e-01 4.86274511e-01 6.94117665e-01
      7.05882370e-01 1.92156866e-01 0. 6.00000024e-01 8.00000012e-01
      8.19607854e-01 8.39215696e-01 7.41176486e-01 8.58823538e-01
      8.19607854e-01 8.03921580e-01 8.47058833e-01 8.39215696e-01
      7.29411781e-01 1.60784319e-01 0. 4.03921574e-01 8.23529422e-01
      8.66666675e-01 8.70588243e-01 6.27451003e-01 8.54901969e-01
      7.17647076e-01 8.82352948e-01 8.86274517e-01 8.15686285e-01
      6.98039234e-01 7.45098069e-02 0. 2.70588249e-01 7.09803939e-01
      8.66666675e-01 8.11764717e-01 8.07843149e-01 8.74509811e-01
      7.52941191e-01 8.50980401e-01 8.82352948e-01 7.64705896e-01
      5.92156887e-01 2.35294122e-02 0. 1.96078438e-02 6.23529434e-01
      7.76470602e-01 5.49019635e-01 1.56862754e-02 3.01960796e-01
      1.17647061e-02 7.17647076e-01 8.35294127e-01 7.41176486e-01
      4.43137258e-01 3.92156886e-03 0. 0. 5.17647088e-01 6.86274529e-01
      7.84313738e-01 6.11764729e-01 6.78431392e-01 7.17647076e-01
      8.15686285e-01 7.76470602e-01 6.50980413e-01 3.33333343e-01 0. 0.
      0. 4.43137258e-01 6.11764729e-01 6.31372571e-01 6.31372571e-01
      7.49019623e-01 7.25490212e-01 7.92156875e-01 6.82352960e-01
      5.72549045e-01 1.84313729e-01 0. 0. 0. 2.86274523e-01
      4.78431374e-01 2.62745112e-01 2.11764708e-01 2.50980407e-01
      2.19607845e-01 4.90196079e-01 6.54901981e-01 4.94117647e-01
      1.09803922e-01 0. 0. 0. 2.35294122e-02 4.78431374e-01
      5.41176498e-01 3.88235301e-01 5.29411793e-01 4.58823532e-01
      5.49019635e-01 5.60784340e-01 2.39215687e-01 1.96078438e-02 0. 0.
      0. 0. 2.43137255e-01 4.86274511e-01 3.76470596e-01 3.29411775e-01
      4.82352942e-01 4.78431374e-01 2.54901975e-01 0. 0. 0. 0. 0. 0. 0.
      2.78431386e-01 6.00000024e-01 5.68627477e-01 5.96078455e-01
      2.50980407e-01 0. 0. 0. 0. 0. 0. 0. 0. 0. 0. 3.52941193e-02 0. 0.
      0. 0. 0. 0.</_>
    <_>
      0. 0. 0. 0. 0. 0. 0. 0. 0. 0. 0. 0. 0. 0. 0. 0. 0. 0. 0. 0. 0. 0.
      0. 0. 0. 0. 0. 0. 0. 0. 1.05882354e-01 2.47058824e-01
      2.15686277e-01 1.56862751e-01 7.05882385e-02 0. 0. 0. 0. 0. 0.
      3.92156886e-03 2.07843140e-01 5.60784340e-01 6.43137276e-01
      6.00000024e-01 5.05882382e-01 2.19607845e-01 7.05882385e-02
      8.23529437e-02 0. 0. 0. 0. 1.49019614e-01 5.41176498e-01
      6.82352960e-01 8.03921580e-01 7.49019623e-01 5.84313750e-01
      3.37254912e-01 2.23529413e-01 1.17647059e-01 0. 0. 0.
      3.92156886e-03 2.70588249e-01 6.11764729e-01 7.72549033e-01
      8.39215696e-01 8.74509811e-01 6.98039234e-01 4.27450985e-01
      1.68627456e-01 1.33333340e-01 7.84313753e-02 0. 0. 3.13725509e-02
      4.54901963e-01 6.47058845e-01 8.27450991e-01 8.54901969e-01
      8.62745106e-01 7.72549033e-01 6.86274529e-01 2.74509817e-01
      1.68627456e-01 9.01960805e-02 0. 0. 1.49019614e-01 4.11764711e-01
      6.15686297e-01 7.76470602e-01 8.50980401e-01 8.90196085e-01
      7.92156875e-01 7.56862760e-01 4.94117647e-01 3.29411775e-01
      7.45098069e-02 0. 0. 2.35294119e-01 5.52941203e-01 6.47058845e-01
      8.54901969e-01 8.78431380e-01 9.01960790e-01 8.98039222e-01
      8.54901969e-01 7.52941191e-01 5.92156887e-01 1.29411772e-01
      7.84313772e-03 0. 2.94117659e-01 4.86274511e-01 6.19607866e-01
      8.39215696e-01 8.39215696e-01 9.05882359e-01 8.90196085e-01
      8.03921580e-01 6.98039234e-01 6.31372571e-01 2.74509817e-01 0. 0.
      2.82352954e-01 9.01960790e-01 5.88235319e-01 6.74509823e-01
      2.78431386e-01 2.19607845e-01 2.47058824e-01 5.29411793e-01
      2.66666681e-01 4.43137258e-01 4.15686280e-01 0. 0. 3.88235301e-01
      2.50980407e-01 8.03921580e-01 3.13725501e-01 4.27450985e-01
      8.78431380e-01 9.13725495e-01 8.11764717e-01 6.27451003e-01
      3.60784322e-01 4.07843143e-01 0. 0. 9.33333337e-01 3.33333343e-01
      2.78431386e-01 2.27450982e-01 3.68627459e-01 7.68627465e-01
      3.41176480e-01 3.21568638e-01 2.35294119e-01 4.86274511e-01
      1.92156866e-01 3.80392164e-01 0. 9.13725495e-01 3.72549027e-01
      3.72549027e-01 2.94117659e-01 1.05882354e-01 7.56862760e-01
      4.47058827e-01 3.60784322e-01 4.82352942e-01 4.90196079e-01
      9.88235295e-01 0. 0. 8.70588243e-01 4.94117647e-01 5.72549045e-01
      4.23529416e-01 3.37254912e-01 7.52941191e-01 3.60784322e-01
      5.60784340e-01 6.07843161e-01 8.35294127e-01 6.90196097e-01 0. 0.
      1.21568628e-01 3.49019617e-01 5.33333361e-01 2.62745112e-01
      4.39215690e-01 7.88235307e-01 4.98039216e-01 8.74509811e-01
      7.52941191e-01 6.98039234e-01 5.33333361e-01 0. 0. 1.64705887e-01
      3.84313732e-01 4.31372553e-01 6.47058845e-01 3.68627459e-01
      8.15686285e-01 5.21568656e-01 8.27450991e-01 4.39215690e-01
      7.01960802e-01 3.84313732e-01 0. 0. 3.92156886e-03 6.78431392e-01
      7.21568644e-01 7.25490212e-01 3.13725501e-01 2.70588249e-01
      2.47058824e-01 7.60784328e-01 8.98039222e-01 8.43137264e-01
      2.98039228e-01 0. 0. 0. 6.27451003e-01 7.88235307e-01
      6.98039234e-01 5.72549045e-01 7.72549033e-01 6.86274529e-01
      8.23529422e-01 8.70588243e-01 8.07843149e-01 8.62745121e-02 0. 0.
      0. 5.17647088e-01 7.60784328e-01 6.47058845e-01 5.72549045e-01
      7.60784328e-01 7.29411781e-01 8.27450991e-01 8.70588243e-01
      7.52941191e-01 0. 0. 0. 0. 3.45098048e-01 7.25490212e-01
      5.05882382e-01 3.17647070e-01 2.98039228e-01 2.62745112e-01
      4.50980395e-01 8.62745106e-01 6.19607866e-01 0. 0. 0. 0.
      1.25490203e-01 7.05882370e-01 6.86274529e-01 5.45098066e-01
      5.96078455e-01 6.66666687e-01 8.50980401e-01 8.54901969e-01
      3.56862754e-01 0. 0. 0. 0. 0. 6.07843161e-01 6.27451003e-01
      6.00000024e-01 6.31372571e-01 7.05882370e-01 7.49019623e-01
      6.90196097e-01 0. 0. 0. 0. 0. 0. 4.31372561e-02 5.33333361e-01
      7.21568644e-01 7.45098054e-01 8.11764717e-01 6.47058845e-01
      5.49019612e-02 0. 0. 0. 0. 0. 0. 0. 0. 3.72549027e-01
      5.01960814e-01 3.52941185e-01 0. 0. 0. 0. 0.</_>
    <_>
      0. 0. 0. 0. 0. 0. 0. 0. 0. 0. 0. 0. 0. 0. 0. 0. 0. 0. 0. 0. 0. 0.
      0. 0. 0. 0. 0. 0. 0. 0. 0. 0. 7.84313772e-03 1.29411772e-01
      5.88235296e-02 7.84313772e-03 0. 0. 0. 0. 0. 3.52941193e-02
      1.84313729e-01 1.33333340e-01 1.96078435e-01 4.70588237e-01
      8.11764717e-01 7.84313738e-01 6.03921592e-01 3.76470596e-01 0. 0.
      0. 0. 2.00000003e-01 3.05882365e-01 6.43137276e-01 6.74509823e-01
      8.90196085e-01 8.62745106e-01 8.74509811e-01 8.11764717e-01
      7.37254918e-01 3.49019617e-01 0. 0. 3.92156877e-02 3.17647070e-01
      5.64705908e-01 7.56862760e-01 8.90196085e-01 8.98039222e-01
      8.98039222e-01 9.01960790e-01 8.39215696e-01 7.41176486e-01
      5.84313750e-01 0. 0. 7.84313753e-02 4.90196079e-01 6.15686297e-01
      7.45098054e-01 8.78431380e-01 9.01960790e-01 8.82352948e-01
      8.82352948e-01 8.66666675e-01 7.84313738e-01 6.07843161e-01 0. 0.
      1.80392161e-01 4.90196079e-01 5.92156887e-01 7.49019623e-01
      8.15686285e-01 8.54901969e-01 8.35294127e-01 8.74509811e-01
      8.43137264e-01 7.84313738e-01 6.74509823e-01 0. 0. 1.33333340e-01
      4.98039216e-01 6.58823550e-01 8.07843149e-01 8.54901969e-01
      8.39215696e-01 8.39215696e-01 8.86274517e-01 8.54901969e-01
      7.92156875e-01 6.50980413e-01 0. 0. 1.96078438e-02 5.09803951e-01
      6.07843161e-01 7.88235307e-01 8.43137264e-01 8.66666675e-01
      8.86274517e-01 9.01960790e-01 8.15686285e-01 7.96078444e-01
      6.54901981e-01 0. 0. 3.13725509e-02 1.21568628e-01 1.60784319e-01
      3.09803933e-01 6.47058845e-01 7.09803939e-01 4.43137258e-01
      1.76470593e-01 3.68627459e-01 2.58823544e-01 6.23529434e-01 0.
      4.35294122e-01 2.35294122e-02 2.66666681e-01 2.19607845e-01
      4.31372561e-02 3.05882365e-01 5.29411793e-01 2.47058824e-01
      1.45098045e-01 4.50980395e-01 4.66666669e-01 5.05882382e-01 0.
